digraph Tree {
node [shape=box, style="filled, rounded", color="black", fontname=helvetica] ;
edge [fontname=helvetica] ;
0 [label="global_num <= 1.57\ngini = 0.34\nsamples = 1107\nvalue = [74, 29, 1416, 255]\nclass = isolated", fillcolor="#68b4eb"] ;
1 [label="city_Jongno-gu <= 6.6\ngini = 0.29\nsamples = 1044\nvalue = [2, 29, 1384, 255]\nclass = isolated", fillcolor="#61b1ea"] ;
0 -> 1 [labeldistance=2.5, labelangle=45, headlabel="True"] ;
2 [label="infection_case_Unknown <= 0.06\ngini = 0.29\nsamples = 1040\nvalue = [2, 29, 1384, 249]\nclass = isolated", fillcolor="#60b0ea"] ;
1 -> 2 ;
3 [label="city_Unknown <= 2.82\ngini = 0.38\nsamples = 521\nvalue = [2, 11, 620, 188]\nclass = isolated", fillcolor="#78bced"] ;
2 -> 3 ;
4 [label="contact_number <= -0.03\ngini = 0.37\nsamples = 509\nvalue = [2, 7, 608, 181]\nclass = isolated", fillcolor="#76bbed"] ;
3 -> 4 ;
5 [label="n_age <= -0.62\ngini = 0.47\nsamples = 131\nvalue = [0, 0, 129, 81]\nclass = isolated", fillcolor="#b5dbf5"] ;
4 -> 5 ;
6 [label="city_Wonju-si <= 5.37\ngini = 0.49\nsamples = 46\nvalue = [0, 0, 37, 47]\nclass = released", fillcolor="#f6d5f9"] ;
5 -> 6 ;
7 [label="city_Sejong <= 3.89\ngini = 0.48\nsamples = 45\nvalue = [0, 0, 33, 47]\nclass = released", fillcolor="#f3c4f7"] ;
6 -> 7 ;
8 [label="province_Seoul <= 1.08\ngini = 0.48\nsamples = 44\nvalue = [0, 0, 30, 47]\nclass = released", fillcolor="#f1b7f6"] ;
7 -> 8 ;
9 [label="age_20s <= 0.71\ngini = 0.48\nsamples = 43\nvalue = [0, 0, 30, 45]\nclass = released", fillcolor="#f2bdf6"] ;
8 -> 9 ;
10 [label="infected_by <= -1.45\ngini = 0.47\nsamples = 16\nvalue = [0, 0, 11, 18]\nclass = released", fillcolor="#efb2f5"] ;
9 -> 10 ;
11 [label="gini = 0.0\nsamples = 2\nvalue = [0, 0, 3, 0]\nclass = isolated", fillcolor="#399de5"] ;
10 -> 11 ;
12 [label="infection_case_contact with patient <= 0.59\ngini = 0.43\nsamples = 14\nvalue = [0, 0, 8, 18]\nclass = released", fillcolor="#e991f1"] ;
10 -> 12 ;
13 [label="gini = 0.0\nsamples = 1\nvalue = [0, 0, 0, 4]\nclass = released", fillcolor="#d739e5"] ;
12 -> 13 ;
14 [label="contact_number <= -0.49\ngini = 0.46\nsamples = 13\nvalue = [0, 0, 8, 14]\nclass = released", fillcolor="#eeaaf4"] ;
12 -> 14 ;
15 [label="city_Goyang-si <= 6.97\ngini = 0.5\nsamples = 11\nvalue = [0, 0, 8, 9]\nclass = released", fillcolor="#fbe9fc"] ;
14 -> 15 ;
16 [label="birth_year <= 1.58\ngini = 0.5\nsamples = 10\nvalue = [0, 0, 8, 8]\nclass = isolated", fillcolor="#ffffff"] ;
15 -> 16 ;
17 [label="gini = 0.0\nsamples = 3\nvalue = [0, 0, 5, 0]\nclass = isolated", fillcolor="#399de5"] ;
16 -> 17 ;
18 [label="sex_male <= 0.19\ngini = 0.4\nsamples = 7\nvalue = [0, 0, 3, 8]\nclass = released", fillcolor="#e683ef"] ;
16 -> 18 ;
19 [label="gini = 0.0\nsamples = 1\nvalue = [0, 0, 1, 0]\nclass = isolated", fillcolor="#399de5"] ;
18 -> 19 ;
20 [label="birth_year <= 2.33\ngini = 0.32\nsamples = 6\nvalue = [0, 0, 2, 8]\nclass = released", fillcolor="#e16aec"] ;
18 -> 20 ;
21 [label="birth_year <= 1.74\ngini = 0.2\nsamples = 5\nvalue = [0, 0, 1, 8]\nclass = released", fillcolor="#dc52e8"] ;
20 -> 21 ;
22 [label="gini = 0.0\nsamples = 2\nvalue = [0, 0, 0, 4]\nclass = released", fillcolor="#d739e5"] ;
21 -> 22 ;
23 [label="age_10s <= 2.51\ngini = 0.32\nsamples = 3\nvalue = [0, 0, 1, 4]\nclass = released", fillcolor="#e16aec"] ;
21 -> 23 ;
24 [label="gini = 0.0\nsamples = 2\nvalue = [0, 0, 0, 4]\nclass = released", fillcolor="#d739e5"] ;
23 -> 24 ;
25 [label="gini = 0.0\nsamples = 1\nvalue = [0, 0, 1, 0]\nclass = isolated", fillcolor="#399de5"] ;
23 -> 25 ;
26 [label="gini = 0.0\nsamples = 1\nvalue = [0, 0, 1, 0]\nclass = isolated", fillcolor="#399de5"] ;
20 -> 26 ;
27 [label="gini = 0.0\nsamples = 1\nvalue = [0, 0, 0, 1]\nclass = released", fillcolor="#d739e5"] ;
15 -> 27 ;
28 [label="gini = 0.0\nsamples = 2\nvalue = [0, 0, 0, 5]\nclass = released", fillcolor="#d739e5"] ;
14 -> 28 ;
29 [label="sex_female <= -0.06\ngini = 0.48\nsamples = 27\nvalue = [0, 0, 19, 27]\nclass = released", fillcolor="#f3c4f7"] ;
9 -> 29 ;
30 [label="province_Gangwon-do <= 4.04\ngini = 0.36\nsamples = 11\nvalue = [0, 0, 5, 16]\nclass = released", fillcolor="#e477ed"] ;
29 -> 30 ;
31 [label="infection_case_etc <= 1.35\ngini = 0.42\nsamples = 9\nvalue = [0, 0, 5, 12]\nclass = released", fillcolor="#e88bf0"] ;
30 -> 31 ;
32 [label="city_Suyeong-gu <= 8.55\ngini = 0.47\nsamples = 7\nvalue = [0, 0, 5, 8]\nclass = released", fillcolor="#f0b5f5"] ;
31 -> 32 ;
33 [label="infection_case_overseas inflow <= 2.85\ngini = 0.49\nsamples = 6\nvalue = [0, 0, 5, 4]\nclass = isolated", fillcolor="#d7ebfa"] ;
32 -> 33 ;
34 [label="patient_id <= -0.63\ngini = 0.5\nsamples = 5\nvalue = [0, 0, 4, 4]\nclass = isolated", fillcolor="#ffffff"] ;
33 -> 34 ;
35 [label="city_Geumjeong-gu <= 12.13\ngini = 0.32\nsamples = 4\nvalue = [0, 0, 1, 4]\nclass = released", fillcolor="#e16aec"] ;
34 -> 35 ;
36 [label="gini = 0.0\nsamples = 2\nvalue = [0, 0, 0, 3]\nclass = released", fillcolor="#d739e5"] ;
35 -> 36 ;
37 [label="contact_number <= -0.11\ngini = 0.5\nsamples = 2\nvalue = [0, 0, 1, 1]\nclass = isolated", fillcolor="#ffffff"] ;
35 -> 37 ;
38 [label="gini = 0.0\nsamples = 1\nvalue = [0, 0, 1, 0]\nclass = isolated", fillcolor="#399de5"] ;
37 -> 38 ;
39 [label="gini = 0.0\nsamples = 1\nvalue = [0, 0, 0, 1]\nclass = released", fillcolor="#d739e5"] ;
37 -> 39 ;
40 [label="gini = 0.0\nsamples = 1\nvalue = [0, 0, 3, 0]\nclass = isolated", fillcolor="#399de5"] ;
34 -> 40 ;
41 [label="gini = 0.0\nsamples = 1\nvalue = [0, 0, 1, 0]\nclass = isolated", fillcolor="#399de5"] ;
33 -> 41 ;
42 [label="gini = 0.0\nsamples = 1\nvalue = [0, 0, 0, 4]\nclass = released", fillcolor="#d739e5"] ;
32 -> 42 ;
43 [label="gini = 0.0\nsamples = 2\nvalue = [0, 0, 0, 4]\nclass = released", fillcolor="#d739e5"] ;
31 -> 43 ;
44 [label="gini = 0.0\nsamples = 2\nvalue = [0, 0, 0, 4]\nclass = released", fillcolor="#d739e5"] ;
30 -> 44 ;
45 [label="city_Seosan-si <= 7.4\ngini = 0.49\nsamples = 16\nvalue = [0, 0, 14, 11]\nclass = isolated", fillcolor="#d5eaf9"] ;
29 -> 45 ;
46 [label="patient_id <= -1.22\ngini = 0.5\nsamples = 15\nvalue = [0, 0, 13, 11]\nclass = isolated", fillcolor="#e1f0fb"] ;
45 -> 46 ;
47 [label="contact_number <= -0.18\ngini = 0.43\nsamples = 10\nvalue = [0, 0, 4, 9]\nclass = released", fillcolor="#e991f1"] ;
46 -> 47 ;
48 [label="birth_year <= 1.31\ngini = 0.38\nsamples = 9\nvalue = [0, 0, 3, 9]\nclass = released", fillcolor="#e47bee"] ;
47 -> 48 ;
49 [label="city_Haeundae-gu <= 6.02\ngini = 0.49\nsamples = 6\nvalue = [0, 0, 3, 4]\nclass = released", fillcolor="#f5cef8"] ;
48 -> 49 ;
50 [label="infection_case_etc <= 1.35\ngini = 0.48\nsamples = 4\nvalue = [0, 0, 3, 2]\nclass = isolated", fillcolor="#bddef6"] ;
49 -> 50 ;
51 [label="birth_year <= 1.1\ngini = 0.38\nsamples = 3\nvalue = [0, 0, 3, 1]\nclass = isolated", fillcolor="#7bbeee"] ;
50 -> 51 ;
52 [label="gini = 0.0\nsamples = 1\nvalue = [0, 0, 2, 0]\nclass = isolated", fillcolor="#399de5"] ;
51 -> 52 ;
53 [label="n_age <= -1.26\ngini = 0.5\nsamples = 2\nvalue = [0, 0, 1, 1]\nclass = isolated", fillcolor="#ffffff"] ;
51 -> 53 ;
54 [label="gini = 0.0\nsamples = 1\nvalue = [0, 0, 1, 0]\nclass = isolated", fillcolor="#399de5"] ;
53 -> 54 ;
55 [label="gini = 0.0\nsamples = 1\nvalue = [0, 0, 0, 1]\nclass = released", fillcolor="#d739e5"] ;
53 -> 55 ;
56 [label="gini = 0.0\nsamples = 1\nvalue = [0, 0, 0, 1]\nclass = released", fillcolor="#d739e5"] ;
50 -> 56 ;
57 [label="gini = 0.0\nsamples = 2\nvalue = [0, 0, 0, 2]\nclass = released", fillcolor="#d739e5"] ;
49 -> 57 ;
58 [label="gini = 0.0\nsamples = 3\nvalue = [0, 0, 0, 5]\nclass = released", fillcolor="#d739e5"] ;
48 -> 58 ;
59 [label="gini = 0.0\nsamples = 1\nvalue = [0, 0, 1, 0]\nclass = isolated", fillcolor="#399de5"] ;
47 -> 59 ;
60 [label="city_Suncheon-si <= 21.04\ngini = 0.3\nsamples = 5\nvalue = [0, 0, 9, 2]\nclass = isolated", fillcolor="#65b3eb"] ;
46 -> 60 ;
61 [label="province_Chungcheongnam-do <= 1.9\ngini = 0.32\nsamples = 4\nvalue = [0, 0, 8, 2]\nclass = isolated", fillcolor="#6ab6ec"] ;
60 -> 61 ;
62 [label="infected_by <= 1.0\ngini = 0.44\nsamples = 2\nvalue = [0, 0, 4, 2]\nclass = isolated", fillcolor="#9ccef2"] ;
61 -> 62 ;
63 [label="gini = 0.0\nsamples = 1\nvalue = [0, 0, 0, 2]\nclass = released", fillcolor="#d739e5"] ;
62 -> 63 ;
64 [label="gini = 0.0\nsamples = 1\nvalue = [0, 0, 4, 0]\nclass = isolated", fillcolor="#399de5"] ;
62 -> 64 ;
65 [label="gini = 0.0\nsamples = 2\nvalue = [0, 0, 4, 0]\nclass = isolated", fillcolor="#399de5"] ;
61 -> 65 ;
66 [label="gini = 0.0\nsamples = 1\nvalue = [0, 0, 1, 0]\nclass = isolated", fillcolor="#399de5"] ;
60 -> 66 ;
67 [label="gini = 0.0\nsamples = 1\nvalue = [0, 0, 1, 0]\nclass = isolated", fillcolor="#399de5"] ;
45 -> 67 ;
68 [label="gini = 0.0\nsamples = 1\nvalue = [0, 0, 0, 2]\nclass = released", fillcolor="#d739e5"] ;
8 -> 68 ;
69 [label="gini = 0.0\nsamples = 1\nvalue = [0, 0, 3, 0]\nclass = isolated", fillcolor="#399de5"] ;
7 -> 69 ;
70 [label="gini = 0.0\nsamples = 1\nvalue = [0, 0, 4, 0]\nclass = isolated", fillcolor="#399de5"] ;
6 -> 70 ;
71 [label="infection_case_gym facility in Cheonan <= 4.31\ngini = 0.39\nsamples = 85\nvalue = [0, 0, 92, 34]\nclass = isolated", fillcolor="#82c1ef"] ;
5 -> 71 ;
72 [label="patient_id <= -1.33\ngini = 0.36\nsamples = 76\nvalue = [0, 0, 86, 27]\nclass = isolated", fillcolor="#77bced"] ;
71 -> 72 ;
73 [label="gini = 0.0\nsamples = 2\nvalue = [0, 0, 0, 4]\nclass = released", fillcolor="#d739e5"] ;
72 -> 73 ;
74 [label="infection_case_Suyeong-gu Kindergarten <= 14.87\ngini = 0.33\nsamples = 74\nvalue = [0, 0, 86, 23]\nclass = isolated", fillcolor="#6eb7ec"] ;
72 -> 74 ;
75 [label="city_Seosan-si <= 7.4\ngini = 0.32\nsamples = 73\nvalue = [0, 0, 86, 21]\nclass = isolated", fillcolor="#69b5eb"] ;
74 -> 75 ;
76 [label="age_40s <= 0.69\ngini = 0.34\nsamples = 68\nvalue = [0, 0, 77, 21]\nclass = isolated", fillcolor="#6fb8ec"] ;
75 -> 76 ;
77 [label="city_Cheonan-si <= 2.13\ngini = 0.2\nsamples = 43\nvalue = [0, 0, 54, 7]\nclass = isolated", fillcolor="#53aae8"] ;
76 -> 77 ;
78 [label="global_num <= -0.64\ngini = 0.24\nsamples = 31\nvalue = [0, 0, 38, 6]\nclass = isolated", fillcolor="#58ace9"] ;
77 -> 78 ;
79 [label="city_Yuseong-gu <= 6.97\ngini = 0.5\nsamples = 2\nvalue = [0, 0, 1, 1]\nclass = isolated", fillcolor="#ffffff"] ;
78 -> 79 ;
80 [label="gini = 0.0\nsamples = 1\nvalue = [0, 0, 0, 1]\nclass = released", fillcolor="#d739e5"] ;
79 -> 80 ;
81 [label="gini = 0.0\nsamples = 1\nvalue = [0, 0, 1, 0]\nclass = isolated", fillcolor="#399de5"] ;
79 -> 81 ;
82 [label="city_Seongnam-si <= 2.4\ngini = 0.21\nsamples = 29\nvalue = [0, 0, 37, 5]\nclass = isolated", fillcolor="#54aae9"] ;
78 -> 82 ;
83 [label="province_Sejong <= 3.89\ngini = 0.23\nsamples = 25\nvalue = [0, 0, 32, 5]\nclass = isolated", fillcolor="#58ace9"] ;
82 -> 83 ;
84 [label="city_Haeundae-gu <= 6.02\ngini = 0.27\nsamples = 22\nvalue = [0, 0, 26, 5]\nclass = isolated", fillcolor="#5fb0ea"] ;
83 -> 84 ;
85 [label="city_Geumjeong-gu <= 12.13\ngini = 0.23\nsamples = 21\nvalue = [0, 0, 26, 4]\nclass = isolated", fillcolor="#57ace9"] ;
84 -> 85 ;
86 [label="city_Suyeong-gu <= 8.55\ngini = 0.19\nsamples = 20\nvalue = [0, 0, 26, 3]\nclass = isolated", fillcolor="#50a8e8"] ;
85 -> 86 ;
87 [label="city_Saha-gu <= 8.55\ngini = 0.2\nsamples = 19\nvalue = [0, 0, 23, 3]\nclass = isolated", fillcolor="#53aae8"] ;
86 -> 87 ;
88 [label="infection_case_Shincheonji Church <= 2.4\ngini = 0.15\nsamples = 17\nvalue = [0, 0, 22, 2]\nclass = isolated", fillcolor="#4ba6e7"] ;
87 -> 88 ;
89 [label="city_Gangseo-gu <= 5.19\ngini = 0.16\nsamples = 16\nvalue = [0, 0, 21, 2]\nclass = isolated", fillcolor="#4ca6e7"] ;
88 -> 89 ;
90 [label="city_Gangneung-si <= 9.38\ngini = 0.18\nsamples = 15\nvalue = [0, 0, 18, 2]\nclass = isolated", fillcolor="#4fa8e8"] ;
89 -> 90 ;
91 [label="sex_male <= 0.19\ngini = 0.1\nsamples = 14\nvalue = [0, 0, 18, 1]\nclass = isolated", fillcolor="#44a2e6"] ;
90 -> 91 ;
92 [label="patient_id <= -0.88\ngini = 0.13\nsamples = 10\nvalue = [0, 0, 13, 1]\nclass = isolated", fillcolor="#48a5e7"] ;
91 -> 92 ;
93 [label="n_age <= 0.96\ngini = 0.18\nsamples = 7\nvalue = [0, 0, 9, 1]\nclass = isolated", fillcolor="#4fa8e8"] ;
92 -> 93 ;
94 [label="gini = 0.0\nsamples = 4\nvalue = [0, 0, 6, 0]\nclass = isolated", fillcolor="#399de5"] ;
93 -> 94 ;
95 [label="birth_year <= -1.07\ngini = 0.38\nsamples = 3\nvalue = [0, 0, 3, 1]\nclass = isolated", fillcolor="#7bbeee"] ;
93 -> 95 ;
96 [label="gini = 0.0\nsamples = 2\nvalue = [0, 0, 3, 0]\nclass = isolated", fillcolor="#399de5"] ;
95 -> 96 ;
97 [label="gini = 0.0\nsamples = 1\nvalue = [0, 0, 0, 1]\nclass = released", fillcolor="#d739e5"] ;
95 -> 97 ;
98 [label="gini = 0.0\nsamples = 3\nvalue = [0, 0, 4, 0]\nclass = isolated", fillcolor="#399de5"] ;
92 -> 98 ;
99 [label="gini = 0.0\nsamples = 4\nvalue = [0, 0, 5, 0]\nclass = isolated", fillcolor="#399de5"] ;
91 -> 99 ;
100 [label="gini = 0.0\nsamples = 1\nvalue = [0, 0, 0, 1]\nclass = released", fillcolor="#d739e5"] ;
90 -> 100 ;
101 [label="gini = 0.0\nsamples = 1\nvalue = [0, 0, 3, 0]\nclass = isolated", fillcolor="#399de5"] ;
89 -> 101 ;
102 [label="gini = 0.0\nsamples = 1\nvalue = [0, 0, 1, 0]\nclass = isolated", fillcolor="#399de5"] ;
88 -> 102 ;
103 [label="n_age <= 1.5\ngini = 0.5\nsamples = 2\nvalue = [0, 0, 1, 1]\nclass = isolated", fillcolor="#ffffff"] ;
87 -> 103 ;
104 [label="gini = 0.0\nsamples = 1\nvalue = [0, 0, 1, 0]\nclass = isolated", fillcolor="#399de5"] ;
103 -> 104 ;
105 [label="gini = 0.0\nsamples = 1\nvalue = [0, 0, 0, 1]\nclass = released", fillcolor="#d739e5"] ;
103 -> 105 ;
106 [label="gini = 0.0\nsamples = 1\nvalue = [0, 0, 3, 0]\nclass = isolated", fillcolor="#399de5"] ;
86 -> 106 ;
107 [label="gini = 0.0\nsamples = 1\nvalue = [0, 0, 0, 1]\nclass = released", fillcolor="#d739e5"] ;
85 -> 107 ;
108 [label="gini = 0.0\nsamples = 1\nvalue = [0, 0, 0, 1]\nclass = released", fillcolor="#d739e5"] ;
84 -> 108 ;
109 [label="gini = 0.0\nsamples = 3\nvalue = [0, 0, 6, 0]\nclass = isolated", fillcolor="#399de5"] ;
83 -> 109 ;
110 [label="gini = 0.0\nsamples = 4\nvalue = [0, 0, 5, 0]\nclass = isolated", fillcolor="#399de5"] ;
82 -> 110 ;
111 [label="age_50s <= 0.82\ngini = 0.11\nsamples = 12\nvalue = [0, 0, 16, 1]\nclass = isolated", fillcolor="#45a3e7"] ;
77 -> 111 ;
112 [label="infection_case_etc <= 1.35\ngini = 0.22\nsamples = 6\nvalue = [0, 0, 7, 1]\nclass = isolated", fillcolor="#55abe9"] ;
111 -> 112 ;
113 [label="age_60s <= 1.25\ngini = 0.24\nsamples = 5\nvalue = [0, 0, 6, 1]\nclass = isolated", fillcolor="#5aade9"] ;
112 -> 113 ;
114 [label="n_age <= -0.54\ngini = 0.28\nsamples = 4\nvalue = [0, 0, 5, 1]\nclass = isolated", fillcolor="#61b1ea"] ;
113 -> 114 ;
115 [label="gini = 0.0\nsamples = 1\nvalue = [0, 0, 3, 0]\nclass = isolated", fillcolor="#399de5"] ;
114 -> 115 ;
116 [label="contact_number <= -0.44\ngini = 0.44\nsamples = 3\nvalue = [0, 0, 2, 1]\nclass = isolated", fillcolor="#9ccef2"] ;
114 -> 116 ;
117 [label="gini = 0.0\nsamples = 1\nvalue = [0, 0, 0, 1]\nclass = released", fillcolor="#d739e5"] ;
116 -> 117 ;
118 [label="gini = 0.0\nsamples = 2\nvalue = [0, 0, 2, 0]\nclass = isolated", fillcolor="#399de5"] ;
116 -> 118 ;
119 [label="gini = 0.0\nsamples = 1\nvalue = [0, 0, 1, 0]\nclass = isolated", fillcolor="#399de5"] ;
113 -> 119 ;
120 [label="gini = 0.0\nsamples = 1\nvalue = [0, 0, 1, 0]\nclass = isolated", fillcolor="#399de5"] ;
112 -> 120 ;
121 [label="gini = 0.0\nsamples = 6\nvalue = [0, 0, 9, 0]\nclass = isolated", fillcolor="#399de5"] ;
111 -> 121 ;
122 [label="city_Asan-si <= 7.91\ngini = 0.47\nsamples = 25\nvalue = [0, 0, 23, 14]\nclass = isolated", fillcolor="#b2d9f5"] ;
76 -> 122 ;
123 [label="province_Gyeonggi-do <= 1.08\ngini = 0.48\nsamples = 23\nvalue = [0, 0, 21, 14]\nclass = isolated", fillcolor="#bddef6"] ;
122 -> 123 ;
124 [label="infected_by <= -0.63\ngini = 0.46\nsamples = 22\nvalue = [0, 0, 21, 12]\nclass = isolated", fillcolor="#aad5f4"] ;
123 -> 124 ;
125 [label="gini = 0.0\nsamples = 3\nvalue = [0, 0, 4, 0]\nclass = isolated", fillcolor="#399de5"] ;
124 -> 125 ;
126 [label="province_Gyeongsangbuk-do <= 0.07\ngini = 0.49\nsamples = 19\nvalue = [0, 0, 17, 12]\nclass = isolated", fillcolor="#c5e2f7"] ;
124 -> 126 ;
127 [label="province_Sejong <= 3.89\ngini = 0.49\nsamples = 18\nvalue = [0, 0, 15, 12]\nclass = isolated", fillcolor="#d7ebfa"] ;
126 -> 127 ;
128 [label="province_Daejeon <= 4.75\ngini = 0.48\nsamples = 12\nvalue = [0, 0, 8, 12]\nclass = released", fillcolor="#f2bdf6"] ;
127 -> 128 ;
129 [label="sex_male <= 0.19\ngini = 0.44\nsamples = 10\nvalue = [0, 0, 6, 12]\nclass = released", fillcolor="#eb9cf2"] ;
128 -> 129 ;
130 [label="infected_by <= 1.0\ngini = 0.5\nsamples = 6\nvalue = [0, 0, 5, 6]\nclass = released", fillcolor="#f8defb"] ;
129 -> 130 ;
131 [label="gini = 0.0\nsamples = 1\nvalue = [0, 0, 0, 1]\nclass = released", fillcolor="#d739e5"] ;
130 -> 131 ;
132 [label="birth_year <= -0.19\ngini = 0.5\nsamples = 5\nvalue = [0, 0, 5, 5]\nclass = isolated", fillcolor="#ffffff"] ;
130 -> 132 ;
133 [label="gini = 0.0\nsamples = 1\nvalue = [0, 0, 0, 3]\nclass = released", fillcolor="#d739e5"] ;
132 -> 133 ;
134 [label="n_age <= 0.13\ngini = 0.41\nsamples = 4\nvalue = [0, 0, 5, 2]\nclass = isolated", fillcolor="#88c4ef"] ;
132 -> 134 ;
135 [label="contact_number <= -0.5\ngini = 0.5\nsamples = 3\nvalue = [0, 0, 2, 2]\nclass = isolated", fillcolor="#ffffff"] ;
134 -> 135 ;
136 [label="gini = 0.0\nsamples = 2\nvalue = [0, 0, 2, 0]\nclass = isolated", fillcolor="#399de5"] ;
135 -> 136 ;
137 [label="gini = 0.0\nsamples = 1\nvalue = [0, 0, 0, 2]\nclass = released", fillcolor="#d739e5"] ;
135 -> 137 ;
138 [label="gini = 0.0\nsamples = 1\nvalue = [0, 0, 3, 0]\nclass = isolated", fillcolor="#399de5"] ;
134 -> 138 ;
139 [label="city_Cheonan-si <= 2.13\ngini = 0.24\nsamples = 4\nvalue = [0, 0, 1, 6]\nclass = released", fillcolor="#de5ae9"] ;
129 -> 139 ;
140 [label="gini = 0.0\nsamples = 2\nvalue = [0, 0, 0, 5]\nclass = released", fillcolor="#d739e5"] ;
139 -> 140 ;
141 [label="contact_number <= -0.53\ngini = 0.5\nsamples = 2\nvalue = [0, 0, 1, 1]\nclass = isolated", fillcolor="#ffffff"] ;
139 -> 141 ;
142 [label="gini = 0.0\nsamples = 1\nvalue = [0, 0, 0, 1]\nclass = released", fillcolor="#d739e5"] ;
141 -> 142 ;
143 [label="gini = 0.0\nsamples = 1\nvalue = [0, 0, 1, 0]\nclass = isolated", fillcolor="#399de5"] ;
141 -> 143 ;
144 [label="gini = 0.0\nsamples = 2\nvalue = [0, 0, 2, 0]\nclass = isolated", fillcolor="#399de5"] ;
128 -> 144 ;
145 [label="gini = 0.0\nsamples = 6\nvalue = [0, 0, 7, 0]\nclass = isolated", fillcolor="#399de5"] ;
127 -> 145 ;
146 [label="gini = 0.0\nsamples = 1\nvalue = [0, 0, 2, 0]\nclass = isolated", fillcolor="#399de5"] ;
126 -> 146 ;
147 [label="gini = 0.0\nsamples = 1\nvalue = [0, 0, 0, 2]\nclass = released", fillcolor="#d739e5"] ;
123 -> 147 ;
148 [label="gini = 0.0\nsamples = 2\nvalue = [0, 0, 2, 0]\nclass = isolated", fillcolor="#399de5"] ;
122 -> 148 ;
149 [label="gini = 0.0\nsamples = 5\nvalue = [0, 0, 9, 0]\nclass = isolated", fillcolor="#399de5"] ;
75 -> 149 ;
150 [label="gini = 0.0\nsamples = 1\nvalue = [0, 0, 0, 2]\nclass = released", fillcolor="#d739e5"] ;
74 -> 150 ;
151 [label="contact_number <= -0.48\ngini = 0.5\nsamples = 9\nvalue = [0, 0, 6, 7]\nclass = released", fillcolor="#f9e3fb"] ;
71 -> 151 ;
152 [label="gini = 0.0\nsamples = 6\nvalue = [0, 0, 6, 0]\nclass = isolated", fillcolor="#399de5"] ;
151 -> 152 ;
153 [label="gini = 0.0\nsamples = 3\nvalue = [0, 0, 0, 7]\nclass = released", fillcolor="#d739e5"] ;
151 -> 153 ;
154 [label="province_Gyeongsangnam-do <= 2.38\ngini = 0.31\nsamples = 378\nvalue = [2, 7, 479, 100]\nclass = isolated", fillcolor="#65b3eb"] ;
4 -> 154 ;
155 [label="patient_id <= -1.06\ngini = 0.29\nsamples = 354\nvalue = [2, 7, 461, 86]\nclass = isolated", fillcolor="#61b1ea"] ;
154 -> 155 ;
156 [label="infected_by <= -2.19\ngini = 0.34\nsamples = 162\nvalue = [0, 0, 202, 55]\nclass = isolated", fillcolor="#6fb8ec"] ;
155 -> 156 ;
157 [label="infection_case_Eunpyeong St. Mary's Hospital <= 6.29\ngini = 0.5\nsamples = 15\nvalue = [0, 0, 11, 9]\nclass = isolated", fillcolor="#dbedfa"] ;
156 -> 157 ;
158 [label="sex_male <= 0.19\ngini = 0.47\nsamples = 12\nvalue = [0, 0, 10, 6]\nclass = isolated", fillcolor="#b0d8f5"] ;
157 -> 158 ;
159 [label="age_20s <= 0.71\ngini = 0.49\nsamples = 6\nvalue = [0, 0, 4, 5]\nclass = released", fillcolor="#f7d7fa"] ;
158 -> 159 ;
160 [label="n_age <= 0.64\ngini = 0.41\nsamples = 5\nvalue = [0, 0, 2, 5]\nclass = released", fillcolor="#e788ef"] ;
159 -> 160 ;
161 [label="gini = 0.0\nsamples = 3\nvalue = [0, 0, 0, 5]\nclass = released", fillcolor="#d739e5"] ;
160 -> 161 ;
162 [label="gini = 0.0\nsamples = 2\nvalue = [0, 0, 2, 0]\nclass = isolated", fillcolor="#399de5"] ;
160 -> 162 ;
163 [label="gini = 0.0\nsamples = 1\nvalue = [0, 0, 2, 0]\nclass = isolated", fillcolor="#399de5"] ;
159 -> 163 ;
164 [label="age_30s <= 1.11\ngini = 0.24\nsamples = 6\nvalue = [0, 0, 6, 1]\nclass = isolated", fillcolor="#5aade9"] ;
158 -> 164 ;
165 [label="gini = 0.0\nsamples = 5\nvalue = [0, 0, 6, 0]\nclass = isolated", fillcolor="#399de5"] ;
164 -> 165 ;
166 [label="gini = 0.0\nsamples = 1\nvalue = [0, 0, 0, 1]\nclass = released", fillcolor="#d739e5"] ;
164 -> 166 ;
167 [label="city_Eunpyeong-gu <= 5.56\ngini = 0.38\nsamples = 3\nvalue = [0, 0, 1, 3]\nclass = released", fillcolor="#e47bee"] ;
157 -> 167 ;
168 [label="gini = 0.0\nsamples = 1\nvalue = [0, 0, 0, 2]\nclass = released", fillcolor="#d739e5"] ;
167 -> 168 ;
169 [label="age_60s <= 1.25\ngini = 0.5\nsamples = 2\nvalue = [0, 0, 1, 1]\nclass = isolated", fillcolor="#ffffff"] ;
167 -> 169 ;
170 [label="gini = 0.0\nsamples = 1\nvalue = [0, 0, 0, 1]\nclass = released", fillcolor="#d739e5"] ;
169 -> 170 ;
171 [label="gini = 0.0\nsamples = 1\nvalue = [0, 0, 1, 0]\nclass = isolated", fillcolor="#399de5"] ;
169 -> 171 ;
172 [label="city_Dongdaemun-gu <= 4.75\ngini = 0.31\nsamples = 147\nvalue = [0, 0, 191, 46]\nclass = isolated", fillcolor="#69b5eb"] ;
156 -> 172 ;
173 [label="global_num <= 0.0\ngini = 0.32\nsamples = 144\nvalue = [0, 0, 184, 46]\nclass = isolated", fillcolor="#6ab6ec"] ;
172 -> 173 ;
174 [label="city_Gangseo-gu <= 5.19\ngini = 0.48\nsamples = 77\nvalue = [0, 0, 70, 46]\nclass = isolated", fillcolor="#bbddf6"] ;
173 -> 174 ;
175 [label="age_70s <= 1.94\ngini = 0.47\nsamples = 75\nvalue = [0, 0, 70, 43]\nclass = isolated", fillcolor="#b3d9f5"] ;
174 -> 175 ;
176 [label="city_Gwanak-gu <= 6.02\ngini = 0.48\nsamples = 70\nvalue = [0, 0, 64, 42]\nclass = isolated", fillcolor="#bbddf6"] ;
175 -> 176 ;
177 [label="age_50s <= 0.82\ngini = 0.47\nsamples = 67\nvalue = [0, 0, 63, 38]\nclass = isolated", fillcolor="#b0d8f5"] ;
176 -> 177 ;
178 [label="city_Gangdong-gu <= 12.13\ngini = 0.48\nsamples = 52\nvalue = [0, 0, 49, 32]\nclass = isolated", fillcolor="#baddf6"] ;
177 -> 178 ;
179 [label="infection_case_overseas inflow <= 2.85\ngini = 0.47\nsamples = 51\nvalue = [0, 0, 49, 30]\nclass = isolated", fillcolor="#b2d9f5"] ;
178 -> 179 ;
180 [label="province_Daegu <= 2.85\ngini = 0.43\nsamples = 47\nvalue = [0, 0, 48, 22]\nclass = isolated", fillcolor="#94caf1"] ;
179 -> 180 ;
181 [label="city_Ulju-gun <= 14.87\ngini = 0.45\nsamples = 44\nvalue = [0, 0, 42, 22]\nclass = isolated", fillcolor="#a1d0f3"] ;
180 -> 181 ;
182 [label="infection_case_Shincheonji Church <= 2.4\ngini = 0.45\nsamples = 43\nvalue = [0, 0, 41, 22]\nclass = isolated", fillcolor="#a3d2f3"] ;
181 -> 182 ;
183 [label="infection_case_etc <= 1.35\ngini = 0.39\nsamples = 37\nvalue = [0, 0, 38, 14]\nclass = isolated", fillcolor="#82c1ef"] ;
182 -> 183 ;
184 [label="infection_case_Eunpyeong St. Mary's Hospital <= 6.29\ngini = 0.28\nsamples = 17\nvalue = [0, 0, 20, 4]\nclass = isolated", fillcolor="#61b1ea"] ;
183 -> 184 ;
185 [label="birth_year <= 1.42\ngini = 0.24\nsamples = 15\nvalue = [0, 0, 19, 3]\nclass = isolated", fillcolor="#58ace9"] ;
184 -> 185 ;
186 [label="contact_number <= 0.02\ngini = 0.18\nsamples = 13\nvalue = [0, 0, 18, 2]\nclass = isolated", fillcolor="#4fa8e8"] ;
185 -> 186 ;
187 [label="city_Seo-gu <= 5.03\ngini = 0.21\nsamples = 11\nvalue = [0, 0, 15, 2]\nclass = isolated", fillcolor="#53aae8"] ;
186 -> 187 ;
188 [label="province_Ulsan <= 4.12\ngini = 0.23\nsamples = 10\nvalue = [0, 0, 13, 2]\nclass = isolated", fillcolor="#57ace9"] ;
187 -> 188 ;
189 [label="city_Guro-gu <= 4.41\ngini = 0.14\nsamples = 8\nvalue = [0, 0, 12, 1]\nclass = isolated", fillcolor="#49a5e7"] ;
188 -> 189 ;
190 [label="gini = 0.0\nsamples = 6\nvalue = [0, 0, 10, 0]\nclass = isolated", fillcolor="#399de5"] ;
189 -> 190 ;
191 [label="birth_year <= 0.11\ngini = 0.44\nsamples = 2\nvalue = [0, 0, 2, 1]\nclass = isolated", fillcolor="#9ccef2"] ;
189 -> 191 ;
192 [label="gini = 0.0\nsamples = 1\nvalue = [0, 0, 2, 0]\nclass = isolated", fillcolor="#399de5"] ;
191 -> 192 ;
193 [label="gini = 0.0\nsamples = 1\nvalue = [0, 0, 0, 1]\nclass = released", fillcolor="#d739e5"] ;
191 -> 193 ;
194 [label="birth_year <= 0.08\ngini = 0.5\nsamples = 2\nvalue = [0, 0, 1, 1]\nclass = isolated", fillcolor="#ffffff"] ;
188 -> 194 ;
195 [label="gini = 0.0\nsamples = 1\nvalue = [0, 0, 1, 0]\nclass = isolated", fillcolor="#399de5"] ;
194 -> 195 ;
196 [label="gini = 0.0\nsamples = 1\nvalue = [0, 0, 0, 1]\nclass = released", fillcolor="#d739e5"] ;
194 -> 196 ;
197 [label="gini = 0.0\nsamples = 1\nvalue = [0, 0, 2, 0]\nclass = isolated", fillcolor="#399de5"] ;
187 -> 197 ;
198 [label="gini = 0.0\nsamples = 2\nvalue = [0, 0, 3, 0]\nclass = isolated", fillcolor="#399de5"] ;
186 -> 198 ;
199 [label="sex_male <= 0.19\ngini = 0.5\nsamples = 2\nvalue = [0, 0, 1, 1]\nclass = isolated", fillcolor="#ffffff"] ;
185 -> 199 ;
200 [label="gini = 0.0\nsamples = 1\nvalue = [0, 0, 0, 1]\nclass = released", fillcolor="#d739e5"] ;
199 -> 200 ;
201 [label="gini = 0.0\nsamples = 1\nvalue = [0, 0, 1, 0]\nclass = isolated", fillcolor="#399de5"] ;
199 -> 201 ;
202 [label="city_Eunpyeong-gu <= 5.56\ngini = 0.5\nsamples = 2\nvalue = [0, 0, 1, 1]\nclass = isolated", fillcolor="#ffffff"] ;
184 -> 202 ;
203 [label="gini = 0.0\nsamples = 1\nvalue = [0, 0, 0, 1]\nclass = released", fillcolor="#d739e5"] ;
202 -> 203 ;
204 [label="gini = 0.0\nsamples = 1\nvalue = [0, 0, 1, 0]\nclass = isolated", fillcolor="#399de5"] ;
202 -> 204 ;
205 [label="city_Sasang-gu <= 21.04\ngini = 0.46\nsamples = 20\nvalue = [0, 0, 18, 10]\nclass = isolated", fillcolor="#a7d3f3"] ;
183 -> 205 ;
206 [label="contact_number <= 0.03\ngini = 0.43\nsamples = 19\nvalue = [0, 0, 18, 8]\nclass = isolated", fillcolor="#91c9f1"] ;
205 -> 206 ;
207 [label="city_Songpa-gu <= 5.56\ngini = 0.3\nsamples = 16\nvalue = [0, 0, 18, 4]\nclass = isolated", fillcolor="#65b3eb"] ;
206 -> 207 ;
208 [label="n_age <= 0.08\ngini = 0.24\nsamples = 15\nvalue = [0, 0, 18, 3]\nclass = isolated", fillcolor="#5aade9"] ;
207 -> 208 ;
209 [label="city_Gangnam-gu <= 6.02\ngini = 0.34\nsamples = 11\nvalue = [0, 0, 11, 3]\nclass = isolated", fillcolor="#6fb8ec"] ;
208 -> 209 ;
210 [label="sex_female <= -0.06\ngini = 0.4\nsamples = 9\nvalue = [0, 0, 8, 3]\nclass = isolated", fillcolor="#83c2ef"] ;
209 -> 210 ;
211 [label="birth_year <= 0.4\ngini = 0.47\nsamples = 6\nvalue = [0, 0, 5, 3]\nclass = isolated", fillcolor="#b0d8f5"] ;
210 -> 211 ;
212 [label="birth_year <= 0.0\ngini = 0.28\nsamples = 4\nvalue = [0, 0, 5, 1]\nclass = isolated", fillcolor="#61b1ea"] ;
211 -> 212 ;
213 [label="gini = 0.0\nsamples = 1\nvalue = [0, 0, 0, 1]\nclass = released", fillcolor="#d739e5"] ;
212 -> 213 ;
214 [label="gini = 0.0\nsamples = 3\nvalue = [0, 0, 5, 0]\nclass = isolated", fillcolor="#399de5"] ;
212 -> 214 ;
215 [label="gini = 0.0\nsamples = 2\nvalue = [0, 0, 0, 2]\nclass = released", fillcolor="#d739e5"] ;
211 -> 215 ;
216 [label="gini = 0.0\nsamples = 3\nvalue = [0, 0, 3, 0]\nclass = isolated", fillcolor="#399de5"] ;
210 -> 216 ;
217 [label="gini = 0.0\nsamples = 2\nvalue = [0, 0, 3, 0]\nclass = isolated", fillcolor="#399de5"] ;
209 -> 217 ;
218 [label="gini = 0.0\nsamples = 4\nvalue = [0, 0, 7, 0]\nclass = isolated", fillcolor="#399de5"] ;
208 -> 218 ;
219 [label="gini = 0.0\nsamples = 1\nvalue = [0, 0, 0, 1]\nclass = released", fillcolor="#d739e5"] ;
207 -> 219 ;
220 [label="gini = 0.0\nsamples = 3\nvalue = [0, 0, 0, 4]\nclass = released", fillcolor="#d739e5"] ;
206 -> 220 ;
221 [label="gini = 0.0\nsamples = 1\nvalue = [0, 0, 0, 2]\nclass = released", fillcolor="#d739e5"] ;
205 -> 221 ;
222 [label="age_20s <= 0.71\ngini = 0.4\nsamples = 6\nvalue = [0, 0, 3, 8]\nclass = released", fillcolor="#e683ef"] ;
182 -> 222 ;
223 [label="gini = 0.0\nsamples = 2\nvalue = [0, 0, 0, 5]\nclass = released", fillcolor="#d739e5"] ;
222 -> 223 ;
224 [label="global_num <= -0.78\ngini = 0.5\nsamples = 4\nvalue = [0, 0, 3, 3]\nclass = isolated", fillcolor="#ffffff"] ;
222 -> 224 ;
225 [label="gini = 0.0\nsamples = 1\nvalue = [0, 0, 0, 2]\nclass = released", fillcolor="#d739e5"] ;
224 -> 225 ;
226 [label="city_Buk-gu <= 9.38\ngini = 0.38\nsamples = 3\nvalue = [0, 0, 3, 1]\nclass = isolated", fillcolor="#7bbeee"] ;
224 -> 226 ;
227 [label="infected_by <= -0.97\ngini = 0.5\nsamples = 2\nvalue = [0, 0, 1, 1]\nclass = isolated", fillcolor="#ffffff"] ;
226 -> 227 ;
228 [label="gini = 0.0\nsamples = 1\nvalue = [0, 0, 0, 1]\nclass = released", fillcolor="#d739e5"] ;
227 -> 228 ;
229 [label="gini = 0.0\nsamples = 1\nvalue = [0, 0, 1, 0]\nclass = isolated", fillcolor="#399de5"] ;
227 -> 229 ;
230 [label="gini = 0.0\nsamples = 1\nvalue = [0, 0, 2, 0]\nclass = isolated", fillcolor="#399de5"] ;
226 -> 230 ;
231 [label="gini = 0.0\nsamples = 1\nvalue = [0, 0, 1, 0]\nclass = isolated", fillcolor="#399de5"] ;
181 -> 231 ;
232 [label="gini = 0.0\nsamples = 3\nvalue = [0, 0, 6, 0]\nclass = isolated", fillcolor="#399de5"] ;
180 -> 232 ;
233 [label="infection_order <= -3.97\ngini = 0.2\nsamples = 4\nvalue = [0, 0, 1, 8]\nclass = released", fillcolor="#dc52e8"] ;
179 -> 233 ;
234 [label="gini = 0.0\nsamples = 1\nvalue = [0, 0, 0, 2]\nclass = released", fillcolor="#d739e5"] ;
233 -> 234 ;
235 [label="global_num <= -0.64\ngini = 0.24\nsamples = 3\nvalue = [0, 0, 1, 6]\nclass = released", fillcolor="#de5ae9"] ;
233 -> 235 ;
236 [label="gini = 0.0\nsamples = 1\nvalue = [0, 0, 1, 0]\nclass = isolated", fillcolor="#399de5"] ;
235 -> 236 ;
237 [label="gini = 0.0\nsamples = 2\nvalue = [0, 0, 0, 6]\nclass = released", fillcolor="#d739e5"] ;
235 -> 237 ;
238 [label="gini = 0.0\nsamples = 1\nvalue = [0, 0, 0, 2]\nclass = released", fillcolor="#d739e5"] ;
178 -> 238 ;
239 [label="infection_case_contact with patient <= 0.59\ngini = 0.42\nsamples = 15\nvalue = [0, 0, 14, 6]\nclass = isolated", fillcolor="#8ec7f0"] ;
177 -> 239 ;
240 [label="city_Busanjin-gu <= 6.6\ngini = 0.46\nsamples = 10\nvalue = [0, 0, 9, 5]\nclass = isolated", fillcolor="#a7d3f3"] ;
239 -> 240 ;
241 [label="city_Eunpyeong-gu <= 5.56\ngini = 0.43\nsamples = 9\nvalue = [0, 0, 9, 4]\nclass = isolated", fillcolor="#91c9f1"] ;
240 -> 241 ;
242 [label="province_Incheon <= 4.04\ngini = 0.46\nsamples = 8\nvalue = [0, 0, 7, 4]\nclass = isolated", fillcolor="#aad5f4"] ;
241 -> 242 ;
243 [label="infection_case_Seongdong-gu APT <= 6.02\ngini = 0.42\nsamples = 7\nvalue = [0, 0, 7, 3]\nclass = isolated", fillcolor="#8ec7f0"] ;
242 -> 243 ;
244 [label="city_Gangnam-gu <= 6.02\ngini = 0.5\nsamples = 5\nvalue = [0, 0, 3, 3]\nclass = isolated", fillcolor="#ffffff"] ;
243 -> 244 ;
245 [label="infection_case_Shincheonji Church <= 2.4\ngini = 0.38\nsamples = 4\nvalue = [0, 0, 1, 3]\nclass = released", fillcolor="#e47bee"] ;
244 -> 245 ;
246 [label="gini = 0.0\nsamples = 3\nvalue = [0, 0, 0, 3]\nclass = released", fillcolor="#d739e5"] ;
245 -> 246 ;
247 [label="gini = 0.0\nsamples = 1\nvalue = [0, 0, 1, 0]\nclass = isolated", fillcolor="#399de5"] ;
245 -> 247 ;
248 [label="gini = 0.0\nsamples = 1\nvalue = [0, 0, 2, 0]\nclass = isolated", fillcolor="#399de5"] ;
244 -> 248 ;
249 [label="gini = 0.0\nsamples = 2\nvalue = [0, 0, 4, 0]\nclass = isolated", fillcolor="#399de5"] ;
243 -> 249 ;
250 [label="gini = 0.0\nsamples = 1\nvalue = [0, 0, 0, 1]\nclass = released", fillcolor="#d739e5"] ;
242 -> 250 ;
251 [label="gini = 0.0\nsamples = 1\nvalue = [0, 0, 2, 0]\nclass = isolated", fillcolor="#399de5"] ;
241 -> 251 ;
252 [label="gini = 0.0\nsamples = 1\nvalue = [0, 0, 0, 1]\nclass = released", fillcolor="#d739e5"] ;
240 -> 252 ;
253 [label="sex_female <= -0.06\ngini = 0.28\nsamples = 5\nvalue = [0, 0, 5, 1]\nclass = isolated", fillcolor="#61b1ea"] ;
239 -> 253 ;
254 [label="gini = 0.0\nsamples = 1\nvalue = [0, 0, 1, 0]\nclass = isolated", fillcolor="#399de5"] ;
253 -> 254 ;
255 [label="city_Buk-gu <= 9.38\ngini = 0.32\nsamples = 4\nvalue = [0, 0, 4, 1]\nclass = isolated", fillcolor="#6ab6ec"] ;
253 -> 255 ;
256 [label="city_Nam-gu <= 4.63\ngini = 0.38\nsamples = 3\nvalue = [0, 0, 3, 1]\nclass = isolated", fillcolor="#7bbeee"] ;
255 -> 256 ;
257 [label="city_Busanjin-gu <= 6.6\ngini = 0.5\nsamples = 2\nvalue = [0, 0, 1, 1]\nclass = isolated", fillcolor="#ffffff"] ;
256 -> 257 ;
258 [label="gini = 0.0\nsamples = 1\nvalue = [0, 0, 1, 0]\nclass = isolated", fillcolor="#399de5"] ;
257 -> 258 ;
259 [label="gini = 0.0\nsamples = 1\nvalue = [0, 0, 0, 1]\nclass = released", fillcolor="#d739e5"] ;
257 -> 259 ;
260 [label="gini = 0.0\nsamples = 1\nvalue = [0, 0, 2, 0]\nclass = isolated", fillcolor="#399de5"] ;
256 -> 260 ;
261 [label="gini = 0.0\nsamples = 1\nvalue = [0, 0, 1, 0]\nclass = isolated", fillcolor="#399de5"] ;
255 -> 261 ;
262 [label="birth_year <= 0.62\ngini = 0.32\nsamples = 3\nvalue = [0, 0, 1, 4]\nclass = released", fillcolor="#e16aec"] ;
176 -> 262 ;
263 [label="gini = 0.0\nsamples = 2\nvalue = [0, 0, 0, 4]\nclass = released", fillcolor="#d739e5"] ;
262 -> 263 ;
264 [label="gini = 0.0\nsamples = 1\nvalue = [0, 0, 1, 0]\nclass = isolated", fillcolor="#399de5"] ;
262 -> 264 ;
265 [label="infected_by <= -0.7\ngini = 0.24\nsamples = 5\nvalue = [0, 0, 6, 1]\nclass = isolated", fillcolor="#5aade9"] ;
175 -> 265 ;
266 [label="gini = 0.0\nsamples = 1\nvalue = [0, 0, 1, 0]\nclass = isolated", fillcolor="#399de5"] ;
265 -> 266 ;
267 [label="infection_case_contact with patient <= 0.59\ngini = 0.28\nsamples = 4\nvalue = [0, 0, 5, 1]\nclass = isolated", fillcolor="#61b1ea"] ;
265 -> 267 ;
268 [label="n_age <= 1.52\ngini = 0.5\nsamples = 2\nvalue = [0, 0, 1, 1]\nclass = isolated", fillcolor="#ffffff"] ;
267 -> 268 ;
269 [label="gini = 0.0\nsamples = 1\nvalue = [0, 0, 1, 0]\nclass = isolated", fillcolor="#399de5"] ;
268 -> 269 ;
270 [label="gini = 0.0\nsamples = 1\nvalue = [0, 0, 0, 1]\nclass = released", fillcolor="#d739e5"] ;
268 -> 270 ;
271 [label="gini = 0.0\nsamples = 2\nvalue = [0, 0, 4, 0]\nclass = isolated", fillcolor="#399de5"] ;
267 -> 271 ;
272 [label="gini = 0.0\nsamples = 2\nvalue = [0, 0, 0, 3]\nclass = released", fillcolor="#d739e5"] ;
174 -> 272 ;
273 [label="gini = 0.0\nsamples = 67\nvalue = [0, 0, 114, 0]\nclass = isolated", fillcolor="#399de5"] ;
173 -> 273 ;
274 [label="gini = 0.0\nsamples = 3\nvalue = [0, 0, 7, 0]\nclass = isolated", fillcolor="#399de5"] ;
172 -> 274 ;
275 [label="infection_case_Pilgrimage to Israel <= 21.04\ngini = 0.24\nsamples = 192\nvalue = [2, 7, 259, 31]\nclass = isolated", fillcolor="#57ace9"] ;
155 -> 275 ;
276 [label="city_Guri-si <= 21.04\ngini = 0.23\nsamples = 191\nvalue = [2, 7, 259, 30]\nclass = isolated", fillcolor="#56abe9"] ;
275 -> 276 ;
277 [label="city_Gunsan-si <= 21.04\ngini = 0.23\nsamples = 190\nvalue = [2, 7, 259, 29]\nclass = isolated", fillcolor="#55abe9"] ;
276 -> 277 ;
278 [label="contact_number <= 6.27\ngini = 0.22\nsamples = 189\nvalue = [2, 7, 259, 28]\nclass = isolated", fillcolor="#54abe9"] ;
277 -> 278 ;
279 [label="global_num <= -2.06\ngini = 0.22\nsamples = 188\nvalue = [2, 7, 259, 26]\nclass = isolated", fillcolor="#53aae8"] ;
278 -> 279 ;
280 [label="global_num <= -2.08\ngini = 0.38\nsamples = 6\nvalue = [0, 1, 2, 10]\nclass = released", fillcolor="#e26fec"] ;
279 -> 280 ;
281 [label="age_30s <= 1.11\ngini = 0.28\nsamples = 5\nvalue = [0, 0, 2, 10]\nclass = released", fillcolor="#df61ea"] ;
280 -> 281 ;
282 [label="gini = 0.0\nsamples = 4\nvalue = [0, 0, 0, 10]\nclass = released", fillcolor="#d739e5"] ;
281 -> 282 ;
283 [label="gini = 0.0\nsamples = 1\nvalue = [0, 0, 2, 0]\nclass = isolated", fillcolor="#399de5"] ;
281 -> 283 ;
284 [label="gini = 0.0\nsamples = 1\nvalue = [0, 1, 0, 0]\nclass = deceased", fillcolor="#47e539"] ;
280 -> 284 ;
285 [label="global_num <= -1.55\ngini = 0.16\nsamples = 182\nvalue = [2, 6, 257, 16]\nclass = isolated", fillcolor="#4ba6e7"] ;
279 -> 285 ;
286 [label="sex_female <= -0.06\ngini = 0.33\nsamples = 30\nvalue = [0, 2, 37, 7]\nclass = isolated", fillcolor="#67b4eb"] ;
285 -> 286 ;
287 [label="contact_number <= 0.17\ngini = 0.23\nsamples = 19\nvalue = [0, 2, 27, 2]\nclass = isolated", fillcolor="#54abe9"] ;
286 -> 287 ;
288 [label="infection_case_overseas inflow <= 2.85\ngini = 0.26\nsamples = 17\nvalue = [0, 2, 24, 2]\nclass = isolated", fillcolor="#57ace9"] ;
287 -> 288 ;
289 [label="n_age <= 0.61\ngini = 0.2\nsamples = 16\nvalue = [0, 2, 24, 1]\nclass = isolated", fillcolor="#51a9e8"] ;
288 -> 289 ;
290 [label="infection_case_etc <= 1.35\ngini = 0.09\nsamples = 12\nvalue = [0, 0, 19, 1]\nclass = isolated", fillcolor="#43a2e6"] ;
289 -> 290 ;
291 [label="gini = 0.0\nsamples = 9\nvalue = [0, 0, 15, 0]\nclass = isolated", fillcolor="#399de5"] ;
290 -> 291 ;
292 [label="age_30s <= 1.11\ngini = 0.32\nsamples = 3\nvalue = [0, 0, 4, 1]\nclass = isolated", fillcolor="#6ab6ec"] ;
290 -> 292 ;
293 [label="gini = 0.0\nsamples = 1\nvalue = [0, 0, 2, 0]\nclass = isolated", fillcolor="#399de5"] ;
292 -> 293 ;
294 [label="global_num <= -1.7\ngini = 0.44\nsamples = 2\nvalue = [0, 0, 2, 1]\nclass = isolated", fillcolor="#9ccef2"] ;
292 -> 294 ;
295 [label="gini = 0.0\nsamples = 1\nvalue = [0, 0, 2, 0]\nclass = isolated", fillcolor="#399de5"] ;
294 -> 295 ;
296 [label="gini = 0.0\nsamples = 1\nvalue = [0, 0, 0, 1]\nclass = released", fillcolor="#d739e5"] ;
294 -> 296 ;
297 [label="province_Gyeonggi-do <= 1.08\ngini = 0.41\nsamples = 4\nvalue = [0, 2, 5, 0]\nclass = isolated", fillcolor="#88c4ef"] ;
289 -> 297 ;
298 [label="city_Cheongdo-gun <= 3.56\ngini = 0.44\nsamples = 3\nvalue = [0, 2, 4, 0]\nclass = isolated", fillcolor="#9ccef2"] ;
297 -> 298 ;
299 [label="gini = 0.0\nsamples = 2\nvalue = [0, 0, 4, 0]\nclass = isolated", fillcolor="#399de5"] ;
298 -> 299 ;
300 [label="gini = 0.0\nsamples = 1\nvalue = [0, 2, 0, 0]\nclass = deceased", fillcolor="#47e539"] ;
298 -> 300 ;
301 [label="gini = 0.0\nsamples = 1\nvalue = [0, 0, 1, 0]\nclass = isolated", fillcolor="#399de5"] ;
297 -> 301 ;
302 [label="gini = 0.0\nsamples = 1\nvalue = [0, 0, 0, 1]\nclass = released", fillcolor="#d739e5"] ;
288 -> 302 ;
303 [label="gini = 0.0\nsamples = 2\nvalue = [0, 0, 3, 0]\nclass = isolated", fillcolor="#399de5"] ;
287 -> 303 ;
304 [label="birth_year <= 0.62\ngini = 0.44\nsamples = 11\nvalue = [0, 0, 10, 5]\nclass = isolated", fillcolor="#9ccef2"] ;
286 -> 304 ;
305 [label="city_Yeongcheon-si <= 3.81\ngini = 0.5\nsamples = 8\nvalue = [0, 0, 6, 5]\nclass = isolated", fillcolor="#deeffb"] ;
304 -> 305 ;
306 [label="province_Gyeongsangbuk-do <= 0.07\ngini = 0.28\nsamples = 5\nvalue = [0, 0, 5, 1]\nclass = isolated", fillcolor="#61b1ea"] ;
305 -> 306 ;
307 [label="global_num <= -1.66\ngini = 0.44\nsamples = 3\nvalue = [0, 0, 2, 1]\nclass = isolated", fillcolor="#9ccef2"] ;
306 -> 307 ;
308 [label="gini = 0.0\nsamples = 2\nvalue = [0, 0, 2, 0]\nclass = isolated", fillcolor="#399de5"] ;
307 -> 308 ;
309 [label="gini = 0.0\nsamples = 1\nvalue = [0, 0, 0, 1]\nclass = released", fillcolor="#d739e5"] ;
307 -> 309 ;
310 [label="gini = 0.0\nsamples = 2\nvalue = [0, 0, 3, 0]\nclass = isolated", fillcolor="#399de5"] ;
306 -> 310 ;
311 [label="global_num <= -1.71\ngini = 0.32\nsamples = 3\nvalue = [0, 0, 1, 4]\nclass = released", fillcolor="#e16aec"] ;
305 -> 311 ;
312 [label="gini = 0.0\nsamples = 1\nvalue = [0, 0, 1, 0]\nclass = isolated", fillcolor="#399de5"] ;
311 -> 312 ;
313 [label="gini = 0.0\nsamples = 2\nvalue = [0, 0, 0, 4]\nclass = released", fillcolor="#d739e5"] ;
311 -> 313 ;
314 [label="gini = 0.0\nsamples = 3\nvalue = [0, 0, 4, 0]\nclass = isolated", fillcolor="#399de5"] ;
304 -> 314 ;
315 [label="province_Chungcheongnam-do <= 1.9\ngini = 0.12\nsamples = 152\nvalue = [2, 4, 220, 9]\nclass = isolated", fillcolor="#46a4e7"] ;
285 -> 315 ;
316 [label="age_80s <= 2.4\ngini = 0.1\nsamples = 137\nvalue = [2, 4, 201, 5]\nclass = isolated", fillcolor="#44a2e6"] ;
315 -> 316 ;
317 [label="province_Gyeongsangbuk-do <= 0.07\ngini = 0.09\nsamples = 132\nvalue = [2, 2, 194, 5]\nclass = isolated", fillcolor="#42a1e6"] ;
316 -> 317 ;
318 [label="age_60s <= 1.25\ngini = 0.05\nsamples = 103\nvalue = [2, 0, 153, 2]\nclass = isolated", fillcolor="#3ea0e6"] ;
317 -> 318 ;
319 [label="province_Jeollabuk-do <= 9.38\ngini = 0.06\nsamples = 90\nvalue = [2, 0, 138, 2]\nclass = isolated", fillcolor="#3fa0e6"] ;
318 -> 319 ;
320 [label="infected_by <= 0.93\ngini = 0.06\nsamples = 89\nvalue = [2, 0, 135, 2]\nclass = isolated", fillcolor="#3fa0e6"] ;
319 -> 320 ;
321 [label="age_20s <= 0.71\ngini = 0.04\nsamples = 85\nvalue = [2, 0, 131, 1]\nclass = isolated", fillcolor="#3d9fe6"] ;
320 -> 321 ;
322 [label="infection_case_overseas inflow <= 2.85\ngini = 0.05\nsamples = 69\nvalue = [2, 0, 105, 1]\nclass = isolated", fillcolor="#3fa0e6"] ;
321 -> 322 ;
323 [label="city_Anyang-si <= 6.02\ngini = 0.02\nsamples = 66\nvalue = [0, 0, 104, 1]\nclass = isolated", fillcolor="#3b9ee5"] ;
322 -> 323 ;
324 [label="province_Sejong <= 3.89\ngini = 0.02\nsamples = 61\nvalue = [0, 0, 90, 1]\nclass = isolated", fillcolor="#3b9ee5"] ;
323 -> 324 ;
325 [label="birth_year <= 0.51\ngini = 0.02\nsamples = 58\nvalue = [0, 0, 84, 1]\nclass = isolated", fillcolor="#3b9ee5"] ;
324 -> 325 ;
326 [label="gini = 0.0\nsamples = 43\nvalue = [0, 0, 62, 0]\nclass = isolated", fillcolor="#399de5"] ;
325 -> 326 ;
327 [label="city_Cheongju-si <= 7.4\ngini = 0.08\nsamples = 15\nvalue = [0, 0, 22, 1]\nclass = isolated", fillcolor="#42a1e6"] ;
325 -> 327 ;
328 [label="gini = 0.0\nsamples = 14\nvalue = [0, 0, 22, 0]\nclass = isolated", fillcolor="#399de5"] ;
327 -> 328 ;
329 [label="gini = 0.0\nsamples = 1\nvalue = [0, 0, 0, 1]\nclass = released", fillcolor="#d739e5"] ;
327 -> 329 ;
330 [label="gini = 0.0\nsamples = 3\nvalue = [0, 0, 6, 0]\nclass = isolated", fillcolor="#399de5"] ;
324 -> 330 ;
331 [label="gini = 0.0\nsamples = 5\nvalue = [0, 0, 14, 0]\nclass = isolated", fillcolor="#399de5"] ;
323 -> 331 ;
332 [label="n_age <= -1.5\ngini = 0.44\nsamples = 3\nvalue = [2, 0, 1, 0]\nclass = Unknown", fillcolor="#f2c09c"] ;
322 -> 332 ;
333 [label="gini = 0.0\nsamples = 1\nvalue = [1, 0, 0, 0]\nclass = Unknown", fillcolor="#e58139"] ;
332 -> 333 ;
334 [label="birth_year <= 0.62\ngini = 0.5\nsamples = 2\nvalue = [1, 0, 1, 0]\nclass = Unknown", fillcolor="#ffffff"] ;
332 -> 334 ;
335 [label="gini = 0.0\nsamples = 1\nvalue = [1, 0, 0, 0]\nclass = Unknown", fillcolor="#e58139"] ;
334 -> 335 ;
336 [label="gini = 0.0\nsamples = 1\nvalue = [0, 0, 1, 0]\nclass = isolated", fillcolor="#399de5"] ;
334 -> 336 ;
337 [label="gini = 0.0\nsamples = 16\nvalue = [0, 0, 26, 0]\nclass = isolated", fillcolor="#399de5"] ;
321 -> 337 ;
338 [label="birth_year <= 1.21\ngini = 0.32\nsamples = 4\nvalue = [0, 0, 4, 1]\nclass = isolated", fillcolor="#6ab6ec"] ;
320 -> 338 ;
339 [label="gini = 0.0\nsamples = 3\nvalue = [0, 0, 4, 0]\nclass = isolated", fillcolor="#399de5"] ;
338 -> 339 ;
340 [label="gini = 0.0\nsamples = 1\nvalue = [0, 0, 0, 1]\nclass = released", fillcolor="#d739e5"] ;
338 -> 340 ;
341 [label="gini = 0.0\nsamples = 1\nvalue = [0, 0, 3, 0]\nclass = isolated", fillcolor="#399de5"] ;
319 -> 341 ;
342 [label="gini = 0.0\nsamples = 13\nvalue = [0, 0, 15, 0]\nclass = isolated", fillcolor="#399de5"] ;
318 -> 342 ;
343 [label="infection_case_contact with patient <= 0.59\ngini = 0.2\nsamples = 29\nvalue = [0, 2, 41, 3]\nclass = isolated", fillcolor="#50a8e8"] ;
317 -> 343 ;
344 [label="age_70s <= 1.94\ngini = 0.18\nsamples = 15\nvalue = [0, 2, 18, 0]\nclass = isolated", fillcolor="#4fa8e8"] ;
343 -> 344 ;
345 [label="gini = 0.0\nsamples = 13\nvalue = [0, 0, 17, 0]\nclass = isolated", fillcolor="#399de5"] ;
344 -> 345 ;
346 [label="global_num <= -0.4\ngini = 0.44\nsamples = 2\nvalue = [0, 2, 1, 0]\nclass = deceased", fillcolor="#a3f29c"] ;
344 -> 346 ;
347 [label="gini = 0.0\nsamples = 1\nvalue = [0, 0, 1, 0]\nclass = isolated", fillcolor="#399de5"] ;
346 -> 347 ;
348 [label="gini = 0.0\nsamples = 1\nvalue = [0, 2, 0, 0]\nclass = deceased", fillcolor="#47e539"] ;
346 -> 348 ;
349 [label="age_30s <= 1.11\ngini = 0.2\nsamples = 14\nvalue = [0, 0, 23, 3]\nclass = isolated", fillcolor="#53aae8"] ;
343 -> 349 ;
350 [label="city_Pohang-si <= 3.35\ngini = 0.23\nsamples = 12\nvalue = [0, 0, 20, 3]\nclass = isolated", fillcolor="#57ace9"] ;
349 -> 350 ;
351 [label="city_Gyeongju-si <= 5.56\ngini = 0.36\nsamples = 8\nvalue = [0, 0, 10, 3]\nclass = isolated", fillcolor="#74baed"] ;
350 -> 351 ;
352 [label="gini = 0.0\nsamples = 5\nvalue = [0, 0, 8, 0]\nclass = isolated", fillcolor="#399de5"] ;
351 -> 352 ;
353 [label="n_age <= 0.16\ngini = 0.48\nsamples = 3\nvalue = [0, 0, 2, 3]\nclass = released", fillcolor="#f2bdf6"] ;
351 -> 353 ;
354 [label="gini = 0.0\nsamples = 1\nvalue = [0, 0, 0, 3]\nclass = released", fillcolor="#d739e5"] ;
353 -> 354 ;
355 [label="gini = 0.0\nsamples = 2\nvalue = [0, 0, 2, 0]\nclass = isolated", fillcolor="#399de5"] ;
353 -> 355 ;
356 [label="gini = 0.0\nsamples = 4\nvalue = [0, 0, 10, 0]\nclass = isolated", fillcolor="#399de5"] ;
350 -> 356 ;
357 [label="gini = 0.0\nsamples = 2\nvalue = [0, 0, 3, 0]\nclass = isolated", fillcolor="#399de5"] ;
349 -> 357 ;
358 [label="global_num <= 0.07\ngini = 0.35\nsamples = 5\nvalue = [0, 2, 7, 0]\nclass = isolated", fillcolor="#72b9ec"] ;
316 -> 358 ;
359 [label="disease <= 5.37\ngini = 0.48\nsamples = 3\nvalue = [0, 2, 3, 0]\nclass = isolated", fillcolor="#bddef6"] ;
358 -> 359 ;
360 [label="gini = 0.0\nsamples = 2\nvalue = [0, 0, 3, 0]\nclass = isolated", fillcolor="#399de5"] ;
359 -> 360 ;
361 [label="gini = 0.0\nsamples = 1\nvalue = [0, 2, 0, 0]\nclass = deceased", fillcolor="#47e539"] ;
359 -> 361 ;
362 [label="gini = 0.0\nsamples = 2\nvalue = [0, 0, 4, 0]\nclass = isolated", fillcolor="#399de5"] ;
358 -> 362 ;
363 [label="age_10s <= 2.51\ngini = 0.29\nsamples = 15\nvalue = [0, 0, 19, 4]\nclass = isolated", fillcolor="#63b2ea"] ;
315 -> 363 ;
364 [label="age_50s <= 0.82\ngini = 0.09\nsamples = 14\nvalue = [0, 0, 19, 1]\nclass = isolated", fillcolor="#43a2e6"] ;
363 -> 364 ;
365 [label="n_age <= 0.03\ngini = 0.1\nsamples = 12\nvalue = [0, 0, 17, 1]\nclass = isolated", fillcolor="#45a3e7"] ;
364 -> 365 ;
366 [label="gini = 0.0\nsamples = 9\nvalue = [0, 0, 14, 0]\nclass = isolated", fillcolor="#399de5"] ;
365 -> 366 ;
367 [label="birth_year <= -0.13\ngini = 0.38\nsamples = 3\nvalue = [0, 0, 3, 1]\nclass = isolated", fillcolor="#7bbeee"] ;
365 -> 367 ;
368 [label="gini = 0.0\nsamples = 1\nvalue = [0, 0, 1, 0]\nclass = isolated", fillcolor="#399de5"] ;
367 -> 368 ;
369 [label="infected_by <= 1.0\ngini = 0.44\nsamples = 2\nvalue = [0, 0, 2, 1]\nclass = isolated", fillcolor="#9ccef2"] ;
367 -> 369 ;
370 [label="gini = 0.0\nsamples = 1\nvalue = [0, 0, 2, 0]\nclass = isolated", fillcolor="#399de5"] ;
369 -> 370 ;
371 [label="gini = 0.0\nsamples = 1\nvalue = [0, 0, 0, 1]\nclass = released", fillcolor="#d739e5"] ;
369 -> 371 ;
372 [label="gini = 0.0\nsamples = 2\nvalue = [0, 0, 2, 0]\nclass = isolated", fillcolor="#399de5"] ;
364 -> 372 ;
373 [label="gini = 0.0\nsamples = 1\nvalue = [0, 0, 0, 3]\nclass = released", fillcolor="#d739e5"] ;
363 -> 373 ;
374 [label="gini = 0.0\nsamples = 1\nvalue = [0, 0, 0, 2]\nclass = released", fillcolor="#d739e5"] ;
278 -> 374 ;
375 [label="gini = 0.0\nsamples = 1\nvalue = [0, 0, 0, 1]\nclass = released", fillcolor="#d739e5"] ;
277 -> 375 ;
376 [label="gini = 0.0\nsamples = 1\nvalue = [0, 0, 0, 1]\nclass = released", fillcolor="#d739e5"] ;
276 -> 376 ;
377 [label="gini = 0.0\nsamples = 1\nvalue = [0, 0, 0, 1]\nclass = released", fillcolor="#d739e5"] ;
275 -> 377 ;
378 [label="infection_case_Onchun Church <= 4.04\ngini = 0.49\nsamples = 24\nvalue = [0, 0, 18, 14]\nclass = isolated", fillcolor="#d3e9f9"] ;
154 -> 378 ;
379 [label="patient_id <= 0.97\ngini = 0.5\nsamples = 23\nvalue = [0, 0, 16, 14]\nclass = isolated", fillcolor="#e6f3fc"] ;
378 -> 379 ;
380 [label="infection_case_contact with patient <= 0.59\ngini = 0.3\nsamples = 9\nvalue = [0, 0, 2, 9]\nclass = released", fillcolor="#e065eb"] ;
379 -> 380 ;
381 [label="gini = 0.0\nsamples = 5\nvalue = [0, 0, 0, 6]\nclass = released", fillcolor="#d739e5"] ;
380 -> 381 ;
382 [label="sex_female <= -0.06\ngini = 0.48\nsamples = 4\nvalue = [0, 0, 2, 3]\nclass = released", fillcolor="#f2bdf6"] ;
380 -> 382 ;
383 [label="birth_year <= -0.4\ngini = 0.5\nsamples = 2\nvalue = [0, 0, 1, 1]\nclass = isolated", fillcolor="#ffffff"] ;
382 -> 383 ;
384 [label="gini = 0.0\nsamples = 1\nvalue = [0, 0, 1, 0]\nclass = isolated", fillcolor="#399de5"] ;
383 -> 384 ;
385 [label="gini = 0.0\nsamples = 1\nvalue = [0, 0, 0, 1]\nclass = released", fillcolor="#d739e5"] ;
383 -> 385 ;
386 [label="birth_year <= -0.72\ngini = 0.44\nsamples = 2\nvalue = [0, 0, 1, 2]\nclass = released", fillcolor="#eb9cf2"] ;
382 -> 386 ;
387 [label="gini = 0.0\nsamples = 1\nvalue = [0, 0, 1, 0]\nclass = isolated", fillcolor="#399de5"] ;
386 -> 387 ;
388 [label="gini = 0.0\nsamples = 1\nvalue = [0, 0, 0, 2]\nclass = released", fillcolor="#d739e5"] ;
386 -> 388 ;
389 [label="age_60s <= 1.25\ngini = 0.39\nsamples = 14\nvalue = [0, 0, 14, 5]\nclass = isolated", fillcolor="#80c0ee"] ;
379 -> 389 ;
390 [label="sex_female <= -0.06\ngini = 0.4\nsamples = 13\nvalue = [0, 0, 13, 5]\nclass = isolated", fillcolor="#85c3ef"] ;
389 -> 390 ;
391 [label="age_30s <= 1.11\ngini = 0.47\nsamples = 10\nvalue = [0, 0, 8, 5]\nclass = isolated", fillcolor="#b5daf5"] ;
390 -> 391 ;
392 [label="age_20s <= 0.71\ngini = 0.44\nsamples = 9\nvalue = [0, 0, 8, 4]\nclass = isolated", fillcolor="#9ccef2"] ;
391 -> 392 ;
393 [label="city_Changwon-si <= 5.37\ngini = 0.35\nsamples = 6\nvalue = [0, 0, 7, 2]\nclass = isolated", fillcolor="#72b9ec"] ;
392 -> 393 ;
394 [label="infection_case_contact with patient <= 0.59\ngini = 0.48\nsamples = 2\nvalue = [0, 0, 3, 2]\nclass = isolated", fillcolor="#bddef6"] ;
393 -> 394 ;
395 [label="gini = 0.0\nsamples = 1\nvalue = [0, 0, 3, 0]\nclass = isolated", fillcolor="#399de5"] ;
394 -> 395 ;
396 [label="gini = 0.0\nsamples = 1\nvalue = [0, 0, 0, 2]\nclass = released", fillcolor="#d739e5"] ;
394 -> 396 ;
397 [label="gini = 0.0\nsamples = 4\nvalue = [0, 0, 4, 0]\nclass = isolated", fillcolor="#399de5"] ;
393 -> 397 ;
398 [label="n_age <= -1.07\ngini = 0.44\nsamples = 3\nvalue = [0, 0, 1, 2]\nclass = released", fillcolor="#eb9cf2"] ;
392 -> 398 ;
399 [label="gini = 0.0\nsamples = 2\nvalue = [0, 0, 0, 2]\nclass = released", fillcolor="#d739e5"] ;
398 -> 399 ;
400 [label="gini = 0.0\nsamples = 1\nvalue = [0, 0, 1, 0]\nclass = isolated", fillcolor="#399de5"] ;
398 -> 400 ;
401 [label="gini = 0.0\nsamples = 1\nvalue = [0, 0, 0, 1]\nclass = released", fillcolor="#d739e5"] ;
391 -> 401 ;
402 [label="gini = 0.0\nsamples = 3\nvalue = [0, 0, 5, 0]\nclass = isolated", fillcolor="#399de5"] ;
390 -> 402 ;
403 [label="gini = 0.0\nsamples = 1\nvalue = [0, 0, 1, 0]\nclass = isolated", fillcolor="#399de5"] ;
389 -> 403 ;
404 [label="gini = 0.0\nsamples = 1\nvalue = [0, 0, 2, 0]\nclass = isolated", fillcolor="#399de5"] ;
378 -> 404 ;
405 [label="global_num <= -1.01\ngini = 0.6\nsamples = 12\nvalue = [0, 4, 12, 7]\nclass = isolated", fillcolor="#c1e0f7"] ;
3 -> 405 ;
406 [label="sex_male <= 0.19\ngini = 0.54\nsamples = 5\nvalue = [0, 4, 1, 7]\nclass = released", fillcolor="#f0b5f5"] ;
405 -> 406 ;
407 [label="contact_number <= 13.02\ngini = 0.38\nsamples = 2\nvalue = [0, 0, 1, 3]\nclass = released", fillcolor="#e47bee"] ;
406 -> 407 ;
408 [label="gini = 0.0\nsamples = 1\nvalue = [0, 0, 0, 3]\nclass = released", fillcolor="#d739e5"] ;
407 -> 408 ;
409 [label="gini = 0.0\nsamples = 1\nvalue = [0, 0, 1, 0]\nclass = isolated", fillcolor="#399de5"] ;
407 -> 409 ;
410 [label="infected_by <= -0.9\ngini = 0.5\nsamples = 3\nvalue = [0, 4, 0, 4]\nclass = deceased", fillcolor="#ffffff"] ;
406 -> 410 ;
411 [label="gini = 0.0\nsamples = 2\nvalue = [0, 0, 0, 4]\nclass = released", fillcolor="#d739e5"] ;
410 -> 411 ;
412 [label="gini = 0.0\nsamples = 1\nvalue = [0, 4, 0, 0]\nclass = deceased", fillcolor="#47e539"] ;
410 -> 412 ;
413 [label="gini = 0.0\nsamples = 7\nvalue = [0, 0, 11, 0]\nclass = isolated", fillcolor="#399de5"] ;
405 -> 413 ;
414 [label="city_Miryang-si <= 9.38\ngini = 0.17\nsamples = 519\nvalue = [0, 18, 764, 61]\nclass = isolated", fillcolor="#4da7e8"] ;
2 -> 414 ;
415 [label="province_Daegu <= 2.85\ngini = 0.17\nsamples = 517\nvalue = [0, 18, 762, 59]\nclass = isolated", fillcolor="#4da7e8"] ;
414 -> 415 ;
416 [label="city_Unknown <= 2.82\ngini = 0.14\nsamples = 488\nvalue = [0, 0, 732, 58]\nclass = isolated", fillcolor="#49a5e7"] ;
415 -> 416 ;
417 [label="sex_female <= -0.06\ngini = 0.13\nsamples = 487\nvalue = [0, 0, 732, 54]\nclass = isolated", fillcolor="#48a4e7"] ;
416 -> 417 ;
418 [label="birth_year <= 1.95\ngini = 0.08\nsamples = 250\nvalue = [0, 0, 387, 17]\nclass = isolated", fillcolor="#42a1e6"] ;
417 -> 418 ;
419 [label="n_age <= -0.35\ngini = 0.07\nsamples = 246\nvalue = [0, 0, 382, 15]\nclass = isolated", fillcolor="#41a1e6"] ;
418 -> 419 ;
420 [label="province_Gyeongsangnam-do <= 2.38\ngini = 0.14\nsamples = 80\nvalue = [0, 0, 126, 10]\nclass = isolated", fillcolor="#49a5e7"] ;
419 -> 420 ;
421 [label="city_Mungyeong-si <= 12.13\ngini = 0.12\nsamples = 79\nvalue = [0, 0, 126, 9]\nclass = isolated", fillcolor="#47a4e7"] ;
420 -> 421 ;
422 [label="city_Gumi-si <= 2.85\ngini = 0.13\nsamples = 78\nvalue = [0, 0, 123, 9]\nclass = isolated", fillcolor="#47a4e7"] ;
421 -> 422 ;
423 [label="age_20s <= 0.71\ngini = 0.15\nsamples = 68\nvalue = [0, 0, 103, 9]\nclass = isolated", fillcolor="#4aa6e7"] ;
422 -> 423 ;
424 [label="contact_number <= -0.2\ngini = 0.13\nsamples = 18\nvalue = [0, 0, 26, 2]\nclass = isolated", fillcolor="#48a5e7"] ;
423 -> 424 ;
425 [label="gini = 0.0\nsamples = 2\nvalue = [0, 0, 6, 0]\nclass = isolated", fillcolor="#399de5"] ;
424 -> 425 ;
426 [label="birth_year <= 0.4\ngini = 0.17\nsamples = 16\nvalue = [0, 0, 20, 2]\nclass = isolated", fillcolor="#4da7e8"] ;
424 -> 426 ;
427 [label="gini = 0.0\nsamples = 1\nvalue = [0, 0, 0, 2]\nclass = released", fillcolor="#d739e5"] ;
426 -> 427 ;
428 [label="gini = 0.0\nsamples = 15\nvalue = [0, 0, 20, 0]\nclass = isolated", fillcolor="#399de5"] ;
426 -> 428 ;
429 [label="city_Gyeongju-si <= 5.56\ngini = 0.15\nsamples = 50\nvalue = [0, 0, 77, 7]\nclass = isolated", fillcolor="#4ba6e7"] ;
423 -> 429 ;
430 [label="global_num <= -0.48\ngini = 0.16\nsamples = 49\nvalue = [0, 0, 74, 7]\nclass = isolated", fillcolor="#4ca6e7"] ;
429 -> 430 ;
431 [label="contact_number <= -0.26\ngini = 0.34\nsamples = 13\nvalue = [0, 0, 18, 5]\nclass = isolated", fillcolor="#70b8ec"] ;
430 -> 431 ;
432 [label="gini = 0.0\nsamples = 3\nvalue = [0, 0, 8, 0]\nclass = isolated", fillcolor="#399de5"] ;
431 -> 432 ;
433 [label="patient_id <= 0.93\ngini = 0.44\nsamples = 10\nvalue = [0, 0, 10, 5]\nclass = isolated", fillcolor="#9ccef2"] ;
431 -> 433 ;
434 [label="n_age <= -1.26\ngini = 0.5\nsamples = 6\nvalue = [0, 0, 6, 5]\nclass = isolated", fillcolor="#deeffb"] ;
433 -> 434 ;
435 [label="gini = 0.0\nsamples = 1\nvalue = [0, 0, 0, 2]\nclass = released", fillcolor="#d739e5"] ;
434 -> 435 ;
436 [label="birth_year <= 1.15\ngini = 0.44\nsamples = 5\nvalue = [0, 0, 6, 3]\nclass = isolated", fillcolor="#9ccef2"] ;
434 -> 436 ;
437 [label="global_num <= -0.81\ngini = 0.48\nsamples = 3\nvalue = [0, 0, 2, 3]\nclass = released", fillcolor="#f2bdf6"] ;
436 -> 437 ;
438 [label="gini = 0.0\nsamples = 2\nvalue = [0, 0, 2, 0]\nclass = isolated", fillcolor="#399de5"] ;
437 -> 438 ;
439 [label="gini = 0.0\nsamples = 1\nvalue = [0, 0, 0, 3]\nclass = released", fillcolor="#d739e5"] ;
437 -> 439 ;
440 [label="gini = 0.0\nsamples = 2\nvalue = [0, 0, 4, 0]\nclass = isolated", fillcolor="#399de5"] ;
436 -> 440 ;
441 [label="gini = 0.0\nsamples = 4\nvalue = [0, 0, 4, 0]\nclass = isolated", fillcolor="#399de5"] ;
433 -> 441 ;
442 [label="city_Gyeongsan-si <= 0.64\ngini = 0.07\nsamples = 36\nvalue = [0, 0, 56, 2]\nclass = isolated", fillcolor="#40a0e6"] ;
430 -> 442 ;
443 [label="gini = 0.0\nsamples = 7\nvalue = [0, 0, 14, 0]\nclass = isolated", fillcolor="#399de5"] ;
442 -> 443 ;
444 [label="birth_year <= 1.1\ngini = 0.09\nsamples = 29\nvalue = [0, 0, 42, 2]\nclass = isolated", fillcolor="#42a2e6"] ;
442 -> 444 ;
445 [label="global_num <= 0.35\ngini = 0.24\nsamples = 7\nvalue = [0, 0, 6, 1]\nclass = isolated", fillcolor="#5aade9"] ;
444 -> 445 ;
446 [label="gini = 0.0\nsamples = 3\nvalue = [0, 0, 3, 0]\nclass = isolated", fillcolor="#399de5"] ;
445 -> 446 ;
447 [label="n_age <= -1.04\ngini = 0.38\nsamples = 4\nvalue = [0, 0, 3, 1]\nclass = isolated", fillcolor="#7bbeee"] ;
445 -> 447 ;
448 [label="gini = 0.0\nsamples = 1\nvalue = [0, 0, 0, 1]\nclass = released", fillcolor="#d739e5"] ;
447 -> 448 ;
449 [label="gini = 0.0\nsamples = 3\nvalue = [0, 0, 3, 0]\nclass = isolated", fillcolor="#399de5"] ;
447 -> 449 ;
450 [label="n_age <= -1.26\ngini = 0.05\nsamples = 22\nvalue = [0, 0, 36, 1]\nclass = isolated", fillcolor="#3ea0e6"] ;
444 -> 450 ;
451 [label="n_age <= -1.31\ngini = 0.14\nsamples = 8\nvalue = [0, 0, 12, 1]\nclass = isolated", fillcolor="#49a5e7"] ;
450 -> 451 ;
452 [label="gini = 0.0\nsamples = 4\nvalue = [0, 0, 8, 0]\nclass = isolated", fillcolor="#399de5"] ;
451 -> 452 ;
453 [label="global_num <= 0.5\ngini = 0.32\nsamples = 4\nvalue = [0, 0, 4, 1]\nclass = isolated", fillcolor="#6ab6ec"] ;
451 -> 453 ;
454 [label="global_num <= 0.1\ngini = 0.5\nsamples = 2\nvalue = [0, 0, 1, 1]\nclass = isolated", fillcolor="#ffffff"] ;
453 -> 454 ;
455 [label="gini = 0.0\nsamples = 1\nvalue = [0, 0, 1, 0]\nclass = isolated", fillcolor="#399de5"] ;
454 -> 455 ;
456 [label="gini = 0.0\nsamples = 1\nvalue = [0, 0, 0, 1]\nclass = released", fillcolor="#d739e5"] ;
454 -> 456 ;
457 [label="gini = 0.0\nsamples = 2\nvalue = [0, 0, 3, 0]\nclass = isolated", fillcolor="#399de5"] ;
453 -> 457 ;
458 [label="gini = 0.0\nsamples = 14\nvalue = [0, 0, 24, 0]\nclass = isolated", fillcolor="#399de5"] ;
450 -> 458 ;
459 [label="gini = 0.0\nsamples = 1\nvalue = [0, 0, 3, 0]\nclass = isolated", fillcolor="#399de5"] ;
429 -> 459 ;
460 [label="gini = 0.0\nsamples = 10\nvalue = [0, 0, 20, 0]\nclass = isolated", fillcolor="#399de5"] ;
422 -> 460 ;
461 [label="gini = 0.0\nsamples = 1\nvalue = [0, 0, 3, 0]\nclass = isolated", fillcolor="#399de5"] ;
421 -> 461 ;
462 [label="gini = 0.0\nsamples = 1\nvalue = [0, 0, 0, 1]\nclass = released", fillcolor="#d739e5"] ;
420 -> 462 ;
463 [label="age_60s <= 1.25\ngini = 0.04\nsamples = 166\nvalue = [0, 0, 256, 5]\nclass = isolated", fillcolor="#3d9fe6"] ;
419 -> 463 ;
464 [label="province_Gyeongsangnam-do <= 2.38\ngini = 0.05\nsamples = 142\nvalue = [0, 0, 212, 5]\nclass = isolated", fillcolor="#3e9fe6"] ;
463 -> 464 ;
465 [label="city_Sangju-si <= 5.37\ngini = 0.03\nsamples = 138\nvalue = [0, 0, 207, 3]\nclass = isolated", fillcolor="#3c9ee5"] ;
464 -> 465 ;
466 [label="city_Gunwi-gun <= 8.55\ngini = 0.03\nsamples = 137\nvalue = [0, 0, 206, 3]\nclass = isolated", fillcolor="#3c9ee5"] ;
465 -> 466 ;
467 [label="birth_year <= -0.56\ngini = 0.03\nsamples = 136\nvalue = [0, 0, 204, 3]\nclass = isolated", fillcolor="#3c9ee5"] ;
466 -> 467 ;
468 [label="city_Chilgok-gun <= 3.35\ngini = 0.15\nsamples = 27\nvalue = [0, 0, 34, 3]\nclass = isolated", fillcolor="#4aa6e7"] ;
467 -> 468 ;
469 [label="city_Seongju-gun <= 5.19\ngini = 0.06\nsamples = 24\nvalue = [0, 0, 33, 1]\nclass = isolated", fillcolor="#3fa0e6"] ;
468 -> 469 ;
470 [label="age_70s <= 1.94\ngini = 0.06\nsamples = 23\nvalue = [0, 0, 32, 1]\nclass = isolated", fillcolor="#3fa0e6"] ;
469 -> 470 ;
471 [label="age_80s <= 2.4\ngini = 0.09\nsamples = 16\nvalue = [0, 0, 20, 1]\nclass = isolated", fillcolor="#43a2e6"] ;
470 -> 471 ;
472 [label="gini = 0.0\nsamples = 8\nvalue = [0, 0, 8, 0]\nclass = isolated", fillcolor="#399de5"] ;
471 -> 472 ;
473 [label="city_Gyeongsan-si <= 0.64\ngini = 0.14\nsamples = 8\nvalue = [0, 0, 12, 1]\nclass = isolated", fillcolor="#49a5e7"] ;
471 -> 473 ;
474 [label="gini = 0.0\nsamples = 1\nvalue = [0, 0, 3, 0]\nclass = isolated", fillcolor="#399de5"] ;
473 -> 474 ;
475 [label="global_num <= -1.18\ngini = 0.18\nsamples = 7\nvalue = [0, 0, 9, 1]\nclass = isolated", fillcolor="#4fa8e8"] ;
473 -> 475 ;
476 [label="gini = 0.0\nsamples = 1\nvalue = [0, 0, 0, 1]\nclass = released", fillcolor="#d739e5"] ;
475 -> 476 ;
477 [label="gini = 0.0\nsamples = 6\nvalue = [0, 0, 9, 0]\nclass = isolated", fillcolor="#399de5"] ;
475 -> 477 ;
478 [label="gini = 0.0\nsamples = 7\nvalue = [0, 0, 12, 0]\nclass = isolated", fillcolor="#399de5"] ;
470 -> 478 ;
479 [label="gini = 0.0\nsamples = 1\nvalue = [0, 0, 1, 0]\nclass = isolated", fillcolor="#399de5"] ;
469 -> 479 ;
480 [label="birth_year <= -0.64\ngini = 0.44\nsamples = 3\nvalue = [0, 0, 1, 2]\nclass = released", fillcolor="#eb9cf2"] ;
468 -> 480 ;
481 [label="gini = 0.5\nsamples = 2\nvalue = [0, 0, 1, 1]\nclass = isolated", fillcolor="#ffffff"] ;
480 -> 481 ;
482 [label="gini = 0.0\nsamples = 1\nvalue = [0, 0, 0, 1]\nclass = released", fillcolor="#d739e5"] ;
480 -> 482 ;
483 [label="gini = 0.0\nsamples = 109\nvalue = [0, 0, 170, 0]\nclass = isolated", fillcolor="#399de5"] ;
467 -> 483 ;
484 [label="gini = 0.0\nsamples = 1\nvalue = [0, 0, 2, 0]\nclass = isolated", fillcolor="#399de5"] ;
466 -> 484 ;
485 [label="gini = 0.0\nsamples = 1\nvalue = [0, 0, 1, 0]\nclass = isolated", fillcolor="#399de5"] ;
465 -> 485 ;
486 [label="n_age <= 0.59\ngini = 0.41\nsamples = 4\nvalue = [0, 0, 5, 2]\nclass = isolated", fillcolor="#88c4ef"] ;
464 -> 486 ;
487 [label="gini = 0.0\nsamples = 2\nvalue = [0, 0, 3, 0]\nclass = isolated", fillcolor="#399de5"] ;
486 -> 487 ;
488 [label="city_Geoje-si <= 10.49\ngini = 0.5\nsamples = 2\nvalue = [0, 0, 2, 2]\nclass = isolated", fillcolor="#ffffff"] ;
486 -> 488 ;
489 [label="gini = 0.0\nsamples = 1\nvalue = [0, 0, 0, 2]\nclass = released", fillcolor="#d739e5"] ;
488 -> 489 ;
490 [label="gini = 0.0\nsamples = 1\nvalue = [0, 0, 2, 0]\nclass = isolated", fillcolor="#399de5"] ;
488 -> 490 ;
491 [label="gini = 0.0\nsamples = 24\nvalue = [0, 0, 44, 0]\nclass = isolated", fillcolor="#399de5"] ;
463 -> 491 ;
492 [label="n_age <= -2.12\ngini = 0.41\nsamples = 4\nvalue = [0, 0, 5, 2]\nclass = isolated", fillcolor="#88c4ef"] ;
418 -> 492 ;
493 [label="gini = 0.0\nsamples = 3\nvalue = [0, 0, 5, 0]\nclass = isolated", fillcolor="#399de5"] ;
492 -> 493 ;
494 [label="gini = 0.0\nsamples = 1\nvalue = [0, 0, 0, 2]\nclass = released", fillcolor="#d739e5"] ;
492 -> 494 ;
495 [label="city_Geochang-gun <= 5.03\ngini = 0.17\nsamples = 237\nvalue = [0, 0, 345, 37]\nclass = isolated", fillcolor="#4ea8e8"] ;
417 -> 495 ;
496 [label="age_40s <= 0.69\ngini = 0.17\nsamples = 231\nvalue = [0, 0, 339, 36]\nclass = isolated", fillcolor="#4ea7e8"] ;
495 -> 496 ;
497 [label="age_70s <= 1.94\ngini = 0.19\nsamples = 206\nvalue = [0, 0, 303, 36]\nclass = isolated", fillcolor="#51a9e8"] ;
496 -> 497 ;
498 [label="age_80s <= 2.4\ngini = 0.2\nsamples = 193\nvalue = [0, 0, 283, 36]\nclass = isolated", fillcolor="#52a9e8"] ;
497 -> 498 ;
499 [label="city_Cheongdo-gun <= 3.56\ngini = 0.21\nsamples = 174\nvalue = [0, 0, 258, 36]\nclass = isolated", fillcolor="#55abe9"] ;
498 -> 499 ;
500 [label="age_90s <= 5.37\ngini = 0.22\nsamples = 168\nvalue = [0, 0, 249, 36]\nclass = isolated", fillcolor="#56abe9"] ;
499 -> 500 ;
501 [label="age_30s <= 1.11\ngini = 0.23\nsamples = 163\nvalue = [0, 0, 240, 36]\nclass = isolated", fillcolor="#57ace9"] ;
500 -> 501 ;
502 [label="province_Gyeongsangbuk-do <= 0.07\ngini = 0.24\nsamples = 141\nvalue = [0, 0, 207, 34]\nclass = isolated", fillcolor="#5aade9"] ;
501 -> 502 ;
503 [label="gini = 0.0\nsamples = 3\nvalue = [0, 0, 5, 0]\nclass = isolated", fillcolor="#399de5"] ;
502 -> 503 ;
504 [label="city_Gyeongsan-si <= 0.64\ngini = 0.25\nsamples = 138\nvalue = [0, 0, 202, 34]\nclass = isolated", fillcolor="#5aade9"] ;
502 -> 504 ;
505 [label="city_Chilgok-gun <= 3.35\ngini = 0.07\nsamples = 36\nvalue = [0, 0, 57, 2]\nclass = isolated", fillcolor="#40a0e6"] ;
504 -> 505 ;
506 [label="gini = 0.0\nsamples = 31\nvalue = [0, 0, 53, 0]\nclass = isolated", fillcolor="#399de5"] ;
505 -> 506 ;
507 [label="birth_year <= -0.61\ngini = 0.44\nsamples = 5\nvalue = [0, 0, 4, 2]\nclass = isolated", fillcolor="#9ccef2"] ;
505 -> 507 ;
508 [label="gini = 0.0\nsamples = 2\nvalue = [0, 0, 2, 0]\nclass = isolated", fillcolor="#399de5"] ;
507 -> 508 ;
509 [label="birth_year <= -0.45\ngini = 0.5\nsamples = 3\nvalue = [0, 0, 2, 2]\nclass = isolated", fillcolor="#ffffff"] ;
507 -> 509 ;
510 [label="gini = 0.0\nsamples = 1\nvalue = [0, 0, 0, 2]\nclass = released", fillcolor="#d739e5"] ;
509 -> 510 ;
511 [label="gini = 0.0\nsamples = 2\nvalue = [0, 0, 2, 0]\nclass = isolated", fillcolor="#399de5"] ;
509 -> 511 ;
512 [label="age_60s <= 1.25\ngini = 0.3\nsamples = 102\nvalue = [0, 0, 145, 32]\nclass = isolated", fillcolor="#65b3eb"] ;
504 -> 512 ;
513 [label="n_age <= -1.42\ngini = 0.32\nsamples = 89\nvalue = [0, 0, 118, 29]\nclass = isolated", fillcolor="#6ab5eb"] ;
512 -> 513 ;
514 [label="global_num <= 1.05\ngini = 0.5\nsamples = 3\nvalue = [0, 0, 3, 3]\nclass = isolated", fillcolor="#ffffff"] ;
513 -> 514 ;
515 [label="birth_year <= 1.53\ngini = 0.38\nsamples = 2\nvalue = [0, 0, 1, 3]\nclass = released", fillcolor="#e47bee"] ;
514 -> 515 ;
516 [label="gini = 0.0\nsamples = 1\nvalue = [0, 0, 0, 3]\nclass = released", fillcolor="#d739e5"] ;
515 -> 516 ;
517 [label="gini = 0.0\nsamples = 1\nvalue = [0, 0, 1, 0]\nclass = isolated", fillcolor="#399de5"] ;
515 -> 517 ;
518 [label="gini = 0.0\nsamples = 1\nvalue = [0, 0, 2, 0]\nclass = isolated", fillcolor="#399de5"] ;
514 -> 518 ;
519 [label="age_20s <= 0.71\ngini = 0.3\nsamples = 86\nvalue = [0, 0, 115, 26]\nclass = isolated", fillcolor="#66b3eb"] ;
513 -> 519 ;
520 [label="age_10s <= 2.51\ngini = 0.34\nsamples = 43\nvalue = [0, 0, 59, 16]\nclass = isolated", fillcolor="#6fb8ec"] ;
519 -> 520 ;
521 [label="birth_year <= -0.4\ngini = 0.34\nsamples = 42\nvalue = [0, 0, 58, 16]\nclass = isolated", fillcolor="#70b8ec"] ;
520 -> 521 ;
522 [label="n_age <= 0.67\ngini = 0.23\nsamples = 23\nvalue = [0, 0, 39, 6]\nclass = isolated", fillcolor="#57ace9"] ;
521 -> 522 ;
523 [label="n_age <= 0.45\ngini = 0.28\nsamples = 20\nvalue = [0, 0, 30, 6]\nclass = isolated", fillcolor="#61b1ea"] ;
522 -> 523 ;
524 [label="gini = 0.0\nsamples = 3\nvalue = [0, 0, 8, 0]\nclass = isolated", fillcolor="#399de5"] ;
523 -> 524 ;
525 [label="global_num <= -0.0\ngini = 0.34\nsamples = 17\nvalue = [0, 0, 22, 6]\nclass = isolated", fillcolor="#6fb8ec"] ;
523 -> 525 ;
526 [label="contact_number <= -0.23\ngini = 0.5\nsamples = 8\nvalue = [0, 0, 6, 6]\nclass = isolated", fillcolor="#ffffff"] ;
525 -> 526 ;
527 [label="gini = 0.0\nsamples = 1\nvalue = [0, 0, 2, 0]\nclass = isolated", fillcolor="#399de5"] ;
526 -> 527 ;
528 [label="birth_year <= -0.61\ngini = 0.48\nsamples = 7\nvalue = [0, 0, 4, 6]\nclass = released", fillcolor="#f2bdf6"] ;
526 -> 528 ;
529 [label="gini = 0.0\nsamples = 1\nvalue = [0, 0, 0, 2]\nclass = released", fillcolor="#d739e5"] ;
528 -> 529 ;
530 [label="n_age <= 0.56\ngini = 0.5\nsamples = 6\nvalue = [0, 0, 4, 4]\nclass = isolated", fillcolor="#ffffff"] ;
528 -> 530 ;
531 [label="n_age <= 0.51\ngini = 0.44\nsamples = 4\nvalue = [0, 0, 2, 4]\nclass = released", fillcolor="#eb9cf2"] ;
530 -> 531 ;
532 [label="gini = 0.0\nsamples = 1\nvalue = [0, 0, 0, 1]\nclass = released", fillcolor="#d739e5"] ;
531 -> 532 ;
533 [label="global_num <= -0.81\ngini = 0.48\nsamples = 3\nvalue = [0, 0, 2, 3]\nclass = released", fillcolor="#f2bdf6"] ;
531 -> 533 ;
534 [label="gini = 0.0\nsamples = 1\nvalue = [0, 0, 1, 0]\nclass = isolated", fillcolor="#399de5"] ;
533 -> 534 ;
535 [label="global_num <= -0.17\ngini = 0.38\nsamples = 2\nvalue = [0, 0, 1, 3]\nclass = released", fillcolor="#e47bee"] ;
533 -> 535 ;
536 [label="gini = 0.0\nsamples = 1\nvalue = [0, 0, 0, 3]\nclass = released", fillcolor="#d739e5"] ;
535 -> 536 ;
537 [label="gini = 0.0\nsamples = 1\nvalue = [0, 0, 1, 0]\nclass = isolated", fillcolor="#399de5"] ;
535 -> 537 ;
538 [label="gini = 0.0\nsamples = 2\nvalue = [0, 0, 2, 0]\nclass = isolated", fillcolor="#399de5"] ;
530 -> 538 ;
539 [label="gini = 0.0\nsamples = 9\nvalue = [0, 0, 16, 0]\nclass = isolated", fillcolor="#399de5"] ;
525 -> 539 ;
540 [label="gini = 0.0\nsamples = 3\nvalue = [0, 0, 9, 0]\nclass = isolated", fillcolor="#399de5"] ;
522 -> 540 ;
541 [label="n_age <= 0.29\ngini = 0.45\nsamples = 19\nvalue = [0, 0, 19, 10]\nclass = isolated", fillcolor="#a1d1f3"] ;
521 -> 541 ;
542 [label="gini = 0.0\nsamples = 1\nvalue = [0, 0, 1, 0]\nclass = isolated", fillcolor="#399de5"] ;
541 -> 542 ;
543 [label="gini = 0.46\nsamples = 18\nvalue = [0, 0, 18, 10]\nclass = isolated", fillcolor="#a7d3f3"] ;
541 -> 543 ;
544 [label="gini = 0.0\nsamples = 1\nvalue = [0, 0, 1, 0]\nclass = isolated", fillcolor="#399de5"] ;
520 -> 544 ;
545 [label="birth_year <= 0.91\ngini = 0.26\nsamples = 43\nvalue = [0, 0, 56, 10]\nclass = isolated", fillcolor="#5caeea"] ;
519 -> 545 ;
546 [label="global_num <= -1.49\ngini = 0.44\nsamples = 2\nvalue = [0, 0, 1, 2]\nclass = released", fillcolor="#eb9cf2"] ;
545 -> 546 ;
547 [label="gini = 0.0\nsamples = 1\nvalue = [0, 0, 1, 0]\nclass = isolated", fillcolor="#399de5"] ;
546 -> 547 ;
548 [label="gini = 0.0\nsamples = 1\nvalue = [0, 0, 0, 2]\nclass = released", fillcolor="#d739e5"] ;
546 -> 548 ;
549 [label="global_num <= -1.22\ngini = 0.22\nsamples = 41\nvalue = [0, 0, 55, 8]\nclass = isolated", fillcolor="#56abe9"] ;
545 -> 549 ;
550 [label="n_age <= -1.29\ngini = 0.5\nsamples = 6\nvalue = [0, 0, 5, 5]\nclass = isolated", fillcolor="#ffffff"] ;
549 -> 550 ;
551 [label="gini = 0.0\nsamples = 1\nvalue = [0, 0, 1, 0]\nclass = isolated", fillcolor="#399de5"] ;
550 -> 551 ;
552 [label="n_age <= -1.12\ngini = 0.49\nsamples = 5\nvalue = [0, 0, 4, 5]\nclass = released", fillcolor="#f7d7fa"] ;
550 -> 552 ;
553 [label="n_age <= -1.21\ngini = 0.47\nsamples = 4\nvalue = [0, 0, 3, 5]\nclass = released", fillcolor="#efb0f5"] ;
552 -> 553 ;
554 [label="global_num <= -1.24\ngini = 0.44\nsamples = 2\nvalue = [0, 0, 1, 2]\nclass = released", fillcolor="#eb9cf2"] ;
553 -> 554 ;
555 [label="gini = 0.0\nsamples = 1\nvalue = [0, 0, 1, 0]\nclass = isolated", fillcolor="#399de5"] ;
554 -> 555 ;
556 [label="gini = 0.0\nsamples = 1\nvalue = [0, 0, 0, 2]\nclass = released", fillcolor="#d739e5"] ;
554 -> 556 ;
557 [label="contact_number <= -0.27\ngini = 0.48\nsamples = 2\nvalue = [0, 0, 2, 3]\nclass = released", fillcolor="#f2bdf6"] ;
553 -> 557 ;
558 [label="gini = 0.0\nsamples = 1\nvalue = [0, 0, 0, 3]\nclass = released", fillcolor="#d739e5"] ;
557 -> 558 ;
559 [label="gini = 0.0\nsamples = 1\nvalue = [0, 0, 2, 0]\nclass = isolated", fillcolor="#399de5"] ;
557 -> 559 ;
560 [label="gini = 0.0\nsamples = 1\nvalue = [0, 0, 1, 0]\nclass = isolated", fillcolor="#399de5"] ;
552 -> 560 ;
561 [label="gini = 0.11\nsamples = 35\nvalue = [0, 0, 50, 3]\nclass = isolated", fillcolor="#45a3e7"] ;
549 -> 561 ;
562 [label="gini = 0.18\nsamples = 13\nvalue = [0, 0, 27, 3]\nclass = isolated", fillcolor="#4fa8e8"] ;
512 -> 562 ;
563 [label="city_Pohang-si <= 3.35\ngini = 0.11\nsamples = 22\nvalue = [0, 0, 33, 2]\nclass = isolated", fillcolor="#45a3e7"] ;
501 -> 563 ;
564 [label="city_Sangju-si <= 5.37\ngini = 0.11\nsamples = 20\nvalue = [0, 0, 31, 2]\nclass = isolated", fillcolor="#46a3e7"] ;
563 -> 564 ;
565 [label="patient_id <= 0.92\ngini = 0.12\nsamples = 19\nvalue = [0, 0, 28, 2]\nclass = isolated", fillcolor="#47a4e7"] ;
564 -> 565 ;
566 [label="n_age <= -0.48\ngini = 0.17\nsamples = 15\nvalue = [0, 0, 19, 2]\nclass = isolated", fillcolor="#4ea7e8"] ;
565 -> 566 ;
567 [label="contact_number <= -0.27\ngini = 0.38\nsamples = 8\nvalue = [0, 0, 6, 2]\nclass = isolated", fillcolor="#7bbeee"] ;
566 -> 567 ;
568 [label="gini = 0.0\nsamples = 1\nvalue = [0, 0, 1, 0]\nclass = isolated", fillcolor="#399de5"] ;
567 -> 568 ;
569 [label="n_age <= -0.56\ngini = 0.41\nsamples = 7\nvalue = [0, 0, 5, 2]\nclass = isolated", fillcolor="#88c4ef"] ;
567 -> 569 ;
570 [label="patient_id <= 0.92\ngini = 0.32\nsamples = 5\nvalue = [0, 0, 4, 1]\nclass = isolated", fillcolor="#6ab6ec"] ;
569 -> 570 ;
571 [label="global_num <= -0.72\ngini = 0.5\nsamples = 2\nvalue = [0, 0, 1, 1]\nclass = isolated", fillcolor="#ffffff"] ;
570 -> 571 ;
572 [label="gini = 0.0\nsamples = 1\nvalue = [0, 0, 0, 1]\nclass = released", fillcolor="#d739e5"] ;
571 -> 572 ;
573 [label="gini = 0.0\nsamples = 1\nvalue = [0, 0, 1, 0]\nclass = isolated", fillcolor="#399de5"] ;
571 -> 573 ;
574 [label="gini = 0.0\nsamples = 3\nvalue = [0, 0, 3, 0]\nclass = isolated", fillcolor="#399de5"] ;
570 -> 574 ;
575 [label="global_num <= -0.16\ngini = 0.5\nsamples = 2\nvalue = [0, 0, 1, 1]\nclass = isolated", fillcolor="#ffffff"] ;
569 -> 575 ;
576 [label="gini = 0.0\nsamples = 1\nvalue = [0, 0, 1, 0]\nclass = isolated", fillcolor="#399de5"] ;
575 -> 576 ;
577 [label="gini = 0.0\nsamples = 1\nvalue = [0, 0, 0, 1]\nclass = released", fillcolor="#d739e5"] ;
575 -> 577 ;
578 [label="gini = 0.0\nsamples = 7\nvalue = [0, 0, 13, 0]\nclass = isolated", fillcolor="#399de5"] ;
566 -> 578 ;
579 [label="gini = 0.0\nsamples = 4\nvalue = [0, 0, 9, 0]\nclass = isolated", fillcolor="#399de5"] ;
565 -> 579 ;
580 [label="gini = 0.0\nsamples = 1\nvalue = [0, 0, 3, 0]\nclass = isolated", fillcolor="#399de5"] ;
564 -> 580 ;
581 [label="gini = 0.0\nsamples = 2\nvalue = [0, 0, 2, 0]\nclass = isolated", fillcolor="#399de5"] ;
563 -> 581 ;
582 [label="gini = 0.0\nsamples = 5\nvalue = [0, 0, 9, 0]\nclass = isolated", fillcolor="#399de5"] ;
500 -> 582 ;
583 [label="gini = 0.0\nsamples = 6\nvalue = [0, 0, 9, 0]\nclass = isolated", fillcolor="#399de5"] ;
499 -> 583 ;
584 [label="gini = 0.0\nsamples = 19\nvalue = [0, 0, 25, 0]\nclass = isolated", fillcolor="#399de5"] ;
498 -> 584 ;
585 [label="gini = 0.0\nsamples = 13\nvalue = [0, 0, 20, 0]\nclass = isolated", fillcolor="#399de5"] ;
497 -> 585 ;
586 [label="gini = 0.0\nsamples = 25\nvalue = [0, 0, 36, 0]\nclass = isolated", fillcolor="#399de5"] ;
496 -> 586 ;
587 [label="age_70s <= 1.94\ngini = 0.24\nsamples = 6\nvalue = [0, 0, 6, 1]\nclass = isolated", fillcolor="#5aade9"] ;
495 -> 587 ;
588 [label="age_60s <= 1.25\ngini = 0.28\nsamples = 5\nvalue = [0, 0, 5, 1]\nclass = isolated", fillcolor="#61b1ea"] ;
587 -> 588 ;
589 [label="gini = 0.0\nsamples = 2\nvalue = [0, 0, 3, 0]\nclass = isolated", fillcolor="#399de5"] ;
588 -> 589 ;
590 [label="birth_year <= -1.12\ngini = 0.44\nsamples = 3\nvalue = [0, 0, 2, 1]\nclass = isolated", fillcolor="#9ccef2"] ;
588 -> 590 ;
591 [label="gini = 0.0\nsamples = 1\nvalue = [0, 0, 0, 1]\nclass = released", fillcolor="#d739e5"] ;
590 -> 591 ;
592 [label="gini = 0.0\nsamples = 2\nvalue = [0, 0, 2, 0]\nclass = isolated", fillcolor="#399de5"] ;
590 -> 592 ;
593 [label="gini = 0.0\nsamples = 1\nvalue = [0, 0, 1, 0]\nclass = isolated", fillcolor="#399de5"] ;
587 -> 593 ;
594 [label="gini = 0.0\nsamples = 1\nvalue = [0, 0, 0, 4]\nclass = released", fillcolor="#d739e5"] ;
416 -> 594 ;
595 [label="patient_id <= -1.27\ngini = 0.49\nsamples = 29\nvalue = [0, 18, 30, 1]\nclass = isolated", fillcolor="#b2d9f5"] ;
415 -> 595 ;
596 [label="age_30s <= 1.11\ngini = 0.17\nsamples = 19\nvalue = [0, 2, 30, 1]\nclass = isolated", fillcolor="#4ca6e8"] ;
595 -> 596 ;
597 [label="city_Nam-gu <= 4.63\ngini = 0.21\nsamples = 15\nvalue = [0, 2, 23, 1]\nclass = isolated", fillcolor="#52a9e8"] ;
596 -> 597 ;
598 [label="age_40s <= 0.69\ngini = 0.09\nsamples = 12\nvalue = [0, 0, 20, 1]\nclass = isolated", fillcolor="#43a2e6"] ;
597 -> 598 ;
599 [label="global_num <= -2.09\ngini = 0.11\nsamples = 10\nvalue = [0, 0, 16, 1]\nclass = isolated", fillcolor="#45a3e7"] ;
598 -> 599 ;
600 [label="age_60s <= 1.25\ngini = 0.24\nsamples = 4\nvalue = [0, 0, 6, 1]\nclass = isolated", fillcolor="#5aade9"] ;
599 -> 600 ;
601 [label="city_Unknown <= 2.82\ngini = 0.38\nsamples = 3\nvalue = [0, 0, 3, 1]\nclass = isolated", fillcolor="#7bbeee"] ;
600 -> 601 ;
602 [label="gini = 0.0\nsamples = 1\nvalue = [0, 0, 1, 0]\nclass = isolated", fillcolor="#399de5"] ;
601 -> 602 ;
603 [label="global_num <= -2.09\ngini = 0.44\nsamples = 2\nvalue = [0, 0, 2, 1]\nclass = isolated", fillcolor="#9ccef2"] ;
601 -> 603 ;
604 [label="gini = 0.0\nsamples = 1\nvalue = [0, 0, 2, 0]\nclass = isolated", fillcolor="#399de5"] ;
603 -> 604 ;
605 [label="gini = 0.0\nsamples = 1\nvalue = [0, 0, 0, 1]\nclass = released", fillcolor="#d739e5"] ;
603 -> 605 ;
606 [label="gini = 0.0\nsamples = 1\nvalue = [0, 0, 3, 0]\nclass = isolated", fillcolor="#399de5"] ;
600 -> 606 ;
607 [label="gini = 0.0\nsamples = 6\nvalue = [0, 0, 10, 0]\nclass = isolated", fillcolor="#399de5"] ;
599 -> 607 ;
608 [label="gini = 0.0\nsamples = 2\nvalue = [0, 0, 4, 0]\nclass = isolated", fillcolor="#399de5"] ;
598 -> 608 ;
609 [label="age_50s <= 0.82\ngini = 0.48\nsamples = 3\nvalue = [0, 2, 3, 0]\nclass = isolated", fillcolor="#bddef6"] ;
597 -> 609 ;
610 [label="gini = 0.0\nsamples = 1\nvalue = [0, 0, 1, 0]\nclass = isolated", fillcolor="#399de5"] ;
609 -> 610 ;
611 [label="global_num <= -2.09\ngini = 0.5\nsamples = 2\nvalue = [0, 2, 2, 0]\nclass = deceased", fillcolor="#ffffff"] ;
609 -> 611 ;
612 [label="gini = 0.0\nsamples = 1\nvalue = [0, 2, 0, 0]\nclass = deceased", fillcolor="#47e539"] ;
611 -> 612 ;
613 [label="gini = 0.0\nsamples = 1\nvalue = [0, 0, 2, 0]\nclass = isolated", fillcolor="#399de5"] ;
611 -> 613 ;
614 [label="gini = 0.0\nsamples = 4\nvalue = [0, 0, 7, 0]\nclass = isolated", fillcolor="#399de5"] ;
596 -> 614 ;
615 [label="gini = 0.0\nsamples = 10\nvalue = [0, 16, 0, 0]\nclass = deceased", fillcolor="#47e539"] ;
595 -> 615 ;
616 [label="n_age <= -0.16\ngini = 0.5\nsamples = 2\nvalue = [0, 0, 2, 2]\nclass = isolated", fillcolor="#ffffff"] ;
414 -> 616 ;
617 [label="gini = 0.0\nsamples = 1\nvalue = [0, 0, 2, 0]\nclass = isolated", fillcolor="#399de5"] ;
616 -> 617 ;
618 [label="gini = 0.0\nsamples = 1\nvalue = [0, 0, 0, 2]\nclass = released", fillcolor="#d739e5"] ;
616 -> 618 ;
619 [label="gini = 0.0\nsamples = 4\nvalue = [0, 0, 0, 6]\nclass = released", fillcolor="#d739e5"] ;
1 -> 619 ;
620 [label="province_Seoul <= 1.08\ngini = 0.43\nsamples = 63\nvalue = [72, 0, 32, 0]\nclass = Unknown", fillcolor="#f1b991"] ;
0 -> 620 [labeldistance=2.5, labelangle=-45, headlabel="False"] ;
621 [label="city_Ansan-si <= 9.38\ngini = 0.12\nsamples = 46\nvalue = [72, 0, 5, 0]\nclass = Unknown", fillcolor="#e78a47"] ;
620 -> 621 ;
622 [label="province_Incheon <= 4.04\ngini = 0.13\nsamples = 45\nvalue = [69, 0, 5, 0]\nclass = Unknown", fillcolor="#e78a47"] ;
621 -> 622 ;
623 [label="city_Seongnam-si <= 2.4\ngini = 0.1\nsamples = 44\nvalue = [69, 0, 4, 0]\nclass = Unknown", fillcolor="#e78844"] ;
622 -> 623 ;
624 [label="gini = 0.0\nsamples = 10\nvalue = [19, 0, 0, 0]\nclass = Unknown", fillcolor="#e58139"] ;
623 -> 624 ;
625 [label="birth_year <= -0.77\ngini = 0.14\nsamples = 34\nvalue = [50, 0, 4, 0]\nclass = Unknown", fillcolor="#e78b49"] ;
623 -> 625 ;
626 [label="sex_male <= 0.19\ngini = 0.43\nsamples = 8\nvalue = [9, 0, 4, 0]\nclass = Unknown", fillcolor="#f1b991"] ;
625 -> 626 ;
627 [label="age_70s <= 1.94\ngini = 0.4\nsamples = 6\nvalue = [8, 0, 3, 0]\nclass = Unknown", fillcolor="#efb083"] ;
626 -> 627 ;
628 [label="n_age <= 0.96\ngini = 0.47\nsamples = 4\nvalue = [5, 0, 3, 0]\nclass = Unknown", fillcolor="#f5cdb0"] ;
627 -> 628 ;
629 [label="gini = 0.0\nsamples = 1\nvalue = [0, 0, 3, 0]\nclass = isolated", fillcolor="#399de5"] ;
628 -> 629 ;
630 [label="gini = 0.0\nsamples = 3\nvalue = [5, 0, 0, 0]\nclass = Unknown", fillcolor="#e58139"] ;
628 -> 630 ;
631 [label="gini = 0.0\nsamples = 2\nvalue = [3, 0, 0, 0]\nclass = Unknown", fillcolor="#e58139"] ;
627 -> 631 ;
632 [label="global_num <= 1.61\ngini = 0.5\nsamples = 2\nvalue = [1, 0, 1, 0]\nclass = Unknown", fillcolor="#ffffff"] ;
626 -> 632 ;
633 [label="gini = 0.0\nsamples = 1\nvalue = [0, 0, 1, 0]\nclass = isolated", fillcolor="#399de5"] ;
632 -> 633 ;
634 [label="gini = 0.0\nsamples = 1\nvalue = [1, 0, 0, 0]\nclass = Unknown", fillcolor="#e58139"] ;
632 -> 634 ;
635 [label="gini = 0.0\nsamples = 26\nvalue = [41, 0, 0, 0]\nclass = Unknown", fillcolor="#e58139"] ;
625 -> 635 ;
636 [label="gini = 0.0\nsamples = 1\nvalue = [0, 0, 1, 0]\nclass = isolated", fillcolor="#399de5"] ;
622 -> 636 ;
637 [label="gini = 0.0\nsamples = 1\nvalue = [3, 0, 0, 0]\nclass = Unknown", fillcolor="#e58139"] ;
621 -> 637 ;
638 [label="gini = 0.0\nsamples = 17\nvalue = [0, 0, 27, 0]\nclass = isolated", fillcolor="#399de5"] ;
620 -> 638 ;
}